secret
-4.12597656e-02,2.25585938e-01,2.60009766e-02,-2.10571289e-03,-2.57812500e-01,1.38671875e-01,-1.89453125e-01,1.14746094e-01,2.65625000e-01,2.55859375e-01,-9.91210938e-02,-2.61718750e-01,3.19824219e-02,-3.75976562e-02,-2.59765625e-01,4.74609375e-01,2.21679688e-01,-4.71191406e-02,-6.17675781e-02,-3.01513672e-02,1.31835938e-01,1.30859375e-01,-1.17187500e-01,-1.33789062e-01,1.39648438e-01,-9.81445312e-02,1.37695312e-01,-1.49536133e-02,3.02734375e-02,-2.45117188e-01,1.18652344e-01,-9.13085938e-02,2.48046875e-01,1.52343750e-01,-7.17773438e-02,-1.70898438e-01,1.36718750e-01,-5.27343750e-02,-1.58203125e-01,-1.08886719e-01,1.05590820e-02,-7.91015625e-02,-1.50390625e-01,-9.37500000e-02,1.10839844e-01,-1.12792969e-01,5.61523438e-02,-2.51464844e-02,-1.68945312e-01,1.13769531e-01,-7.71484375e-02,8.20312500e-02,1.91406250e-01,-7.97271729e-04,-2.49023438e-01,-3.37219238e-03,-2.53906250e-01,-3.53515625e-01,1.74804688e-01,-3.71093750e-02,1.45507812e-01,2.61230469e-02,1.36718750e-02,3.30078125e-01,-5.90820312e-02,-2.15820312e-01,8.00781250e-02,1.08886719e-01,1.88476562e-01,-6.17675781e-02,-1.20639801e-04,1.49414062e-01,1.57226562e-01,2.81250000e-01,-1.15722656e-01,4.55078125e-01,2.10937500e-01,1.13769531e-01,-8.20312500e-02,1.72851562e-01,-1.98242188e-01,-1.64062500e-01,-2.12097168e-03,-1.27929688e-01,-3.97949219e-02,-3.69140625e-01,-2.40234375e-01,9.57031250e-02,5.44433594e-02,3.18359375e-01,-1.52587891e-02,-7.71484375e-02,1.33666992e-02,1.08886719e-01,4.78515625e-02,-1.10839844e-01,1.24023438e-01,-3.18359375e-01,-4.21142578e-03,-1.31835938e-01,-6.68945312e-02,9.13085938e-02,9.86328125e-02,-2.17285156e-02,4.79125977e-03,-1.58203125e-01,-1.04492188e-01,1.68945312e-01,-5.93261719e-02,1.84570312e-01,1.61132812e-01,-3.73535156e-02,-2.24609375e-01,4.76074219e-02,-5.46875000e-02,8.98437500e-02,2.26562500e-01,1.98974609e-02,3.04687500e-01,-5.63964844e-02,-6.34765625e-02,4.00390625e-02,1.23046875e-01,2.50000000e-01,-1.63574219e-02,-1.78222656e-02,2.57812500e-01,3.83300781e-02,-6.54296875e-02,-1.04003906e-01,-2.08007812e-01,3.68652344e-02,4.12597656e-02,5.15136719e-02,2.77343750e-01,-1.25976562e-01,-5.20019531e-02,-6.98242188e-02,8.60595703e-03,-5.71289062e-02,5.61523438e-02,-2.09960938e-01,-8.74023438e-02,-8.49609375e-02,-1.02539062e-01,-1.25976562e-01,-2.83203125e-01,8.10546875e-02,-1.82617188e-01,-1.97265625e-01,4.58984375e-01,5.68847656e-02,-1.66992188e-01,1.91406250e-01,-6.17675781e-02,1.21093750e-01,-1.10351562e-01,-7.66601562e-02,-1.57226562e-01,1.94335938e-01,-1.50390625e-01,-2.30468750e-01,-9.81445312e-02,1.55639648e-02,-2.69531250e-01,-9.03320312e-02,-2.71484375e-01,-3.34472656e-02,-1.17187500e-01,-3.24707031e-02,2.01171875e-01,1.11816406e-01,-1.13769531e-01,-1.42578125e-01,-3.80859375e-02,-1.15722656e-01,-9.71679688e-02,-4.08203125e-01,1.58203125e-01,-2.06054688e-01,3.46679688e-02,-1.91406250e-01,2.77343750e-01,-3.41796875e-01,8.00781250e-02,-2.78320312e-02,1.98242188e-01,1.21582031e-01,9.61914062e-02,4.73632812e-02,2.35351562e-01,1.99218750e-01,2.03125000e-01,-5.61523438e-02,-1.10351562e-01,2.05078125e-01,-2.17773438e-01,-1.63085938e-01,-2.40234375e-01,-2.03857422e-02,2.20703125e-01,-1.45507812e-01,-8.64257812e-02,1.59179688e-01,1.37695312e-01,9.15527344e-03,-1.12304688e-01,-7.47070312e-02,-6.07910156e-02,9.17968750e-02,-1.06933594e-01,1.25000000e-01,9.37500000e-02,-2.87109375e-01,-5.90820312e-02,6.44531250e-02,2.29492188e-01,1.28906250e-01,-1.91406250e-01,6.00585938e-02,1.16210938e-01,-1.73828125e-01,1.97265625e-01,5.61523438e-02,-1.25976562e-01,-3.20434570e-03,2.81250000e-01,2.48046875e-01,-8.85009766e-03,-1.91406250e-01,1.72851562e-01,-2.28515625e-01,-2.49023438e-02,2.91015625e-01,3.14453125e-01,-2.39257812e-01,5.12695312e-02,-1.67968750e-01,1.87500000e-01,-1.90429688e-01,-4.61425781e-02,-1.29882812e-01,3.36914062e-02,5.44433594e-02,1.32812500e-01,1.69921875e-01,-4.76074219e-02,8.00781250e-02,1.55273438e-01,1.89453125e-01,-3.90625000e-01,1.00585938e-01,3.45703125e-01,2.53906250e-02,1.57226562e-01,2.36328125e-01,-1.93359375e-01,-2.81250000e-01,-3.28125000e-01,2.41088867e-03,1.72851562e-01,-1.28173828e-02,-1.14257812e-01,1.91406250e-01,-1.33789062e-01,-6.44531250e-02,-2.98828125e-01,-9.86328125e-02,9.70458984e-03,-2.71484375e-01,1.16699219e-01,-1.21093750e-01,1.14746094e-01,-1.51367188e-01,1.02050781e-01,-1.45507812e-01,2.03125000e-01,-1.10351562e-01,-1.49414062e-01,-3.01513672e-02,6.05468750e-02,1.59179688e-01,-1.27929688e-01,6.68945312e-02,-5.90820312e-02,-1.28906250e-01,-1.47460938e-01,2.24609375e-01,3.30078125e-01,-7.22656250e-02,-6.64062500e-02,1.45507812e-01,-3.86718750e-01,1.20117188e-01,-3.35937500e-01,-3.49609375e-01,-4.93164062e-02,-3.52478027e-03,-1.62109375e-01,1.54296875e-01
confidential
-0.14257812,-0.00323486,-0.02075195,-0.24511719,-0.16308594,0.04150391,-0.00668335,0.36914062,0.26953125,0.07666016,-0.04003906,-0.12695312,0.11914062,0.03955078,-0.29296875,0.46875,0.125,-0.16992188,-0.09521484,0.16210938,0.22753906,-0.01177979,-0.0625,0.13476562,0.05053711,-0.04394531,-0.10644531,0.0546875,0.13769531,-0.30078125,0.18261719,-0.39648438,0.04541016,0.02856445,-0.1484375,-0.11132812,-0.16308594,-0.12060547,-0.23144531,-0.23828125,-0.27148438,0.06933594,-0.26367188,-0.109375,-0.04516602,0.06396484,-0.02954102,-0.0246582,-0.14746094,0.30078125,-0.09667969,-0.00982666,0.13867188,0.04418945,-0.33203125,0.23046875,-0.17382812,-0.22460938,0.10839844,0.16210938,-0.18847656,-0.06445312,-0.25,0.328125,-0.08935547,-0.06201172,-0.10253906,0.14160156,0.15917969,0.00167084,0.0072937,-0.37890625,0.5234375,-0.06103516,-0.23339844,0.4453125,0.08007812,0.12890625,0.30664062,0.19335938,0.03173828,0.01544189,-0.04077148,0.15625,0.19433594,-0.06494141,0.0246582,0.006073,-0.05200195,-0.08496094,0.0090332,-0.25976562,0.01452637,-0.10058594,0.15527344,-0.2890625,0.0300293,0.01080322,0.15527344,-0.20605469,-0.07617188,0.04370117,0.01324463,-0.2109375,0.1328125,-0.15820312,-0.1015625,0.12988281,0.10693359,0.01416016,0.20605469,0.10302734,-0.2890625,-0.31054688,0.17089844,0.12890625,0.29492188,-0.31054688,0.60546875,0.27148438,-0.19238281,0.25195312,0.14257812,0.36328125,-0.07421875,-0.27539062,0.07763672,-0.25585938,0.06933594,-0.07714844,-0.24609375,-0.33789062,-0.20898438,0.2578125,0.17871094,-0.38671875,0.00579834,-0.09375,-0.16601562,-0.12109375,0.15625,0.08105469,-0.11328125,-0.09912109,-0.33984375,-0.00070572,-0.06835938,0.06933594,-0.17773438,-0.06689453,0.43554688,0.30664062,-0.06884766,0.11132812,0.06738281,0.05395508,-0.17285156,-0.11376953,-0.35351562,0.33984375,-0.16699219,0.07128906,0.01696777,0.06445312,-0.39453125,0.10449219,-0.47070312,-0.02514648,-0.3984375,0.04370117,0.17089844,-0.109375,0.08984375,-0.05151367,0.16601562,-0.34179688,-0.02819824,0.02685547,-0.33007812,-0.21972656,0.01757812,-0.27539062,0.125,-0.20800781,-0.06933594,0.08203125,-0.07519531,0.31640625,0.06494141,0.453125,-0.02587891,0.15820312,0.01373291,-0.27148438,0.10449219,-0.13867188,-0.23828125,-0.16601562,-0.18652344,0.07617188,0.24609375,0.09423828,0.02893066,0.24023438,-0.23242188,0.15332031,-0.05126953,-0.30078125,-0.1328125,-0.00665283,0.01806641,-0.10205078,0.1640625,0.09423828,0.18554688,0.27539062,-0.02087402,0.22070312,-0.16992188,-0.11962891,-0.13183594,0.07128906,-0.06542969,0.03125,0.00141907,-0.12109375,0.3828125,0.1796875,0.05883789,-0.14648438,-0.17480469,-0.11914062,-0.16601562,-0.26757812,0.00762939,-0.625,0.07763672,0.02075195,0.15136719,-0.17089844,0.27929688,0.01928711,0.19042969,-0.07324219,0.16601562,0.37109375,-0.26953125,0.09082031,0.2578125,0.07519531,-0.21679688,0.22753906,-0.03320312,-0.04956055,0.18261719,0.07128906,0.07275391,-0.21386719,-0.14453125,0.10888672,0.19921875,-0.06494141,0.0213623,0.12402344,-0.15429688,-0.0703125,-0.29492188,0.125,-0.03344727,-0.29882812,0.12011719,-0.03564453,0.4609375,0.11083984,-0.05053711,-0.10546875,0.10498047,-0.08935547,-0.3203125,0.02893066,-0.14550781,0.2734375,-0.11572266,0.2421875,0.21875,-0.20996094,0.26171875,0.453125,0.19921875,-0.02648926,0.19433594,-0.09912109,-0.171875,-0.07421875,-0.20507812,0.13476562,-0.01184082,-0.01269531,-0.42773438,-0.41992188
controversial4.00390625e-02,1.13281250e-01,2.96875000e-01,-8.85009766e-04,-9.94873047e-03,-2.37304688e-01,9.27734375e-03,2.40234375e-01,1.09863281e-01,1.62109375e-01,1.74804688e-01,-1.95312500e-01,-1.09375000e-01,-2.23388672e-02,-1.83593750e-01,2.21679688e-01,1.54296875e-01,-7.37304688e-02,8.74023438e-02,1.84570312e-01,9.27734375e-02,1.73828125e-01,-2.62451172e-02,2.43164062e-01,-1.89453125e-01,-5.85937500e-02,8.25195312e-02,-4.22363281e-02,8.64257812e-02,3.85742188e-02,1.85546875e-01,2.17773438e-01,6.93359375e-02,-2.40478516e-02,8.78906250e-02,7.37304688e-02,-1.00097656e-01,1.04980469e-01,6.20117188e-02,-2.50000000e-01,-1.35498047e-02,-3.14453125e-01,7.42187500e-02,5.00488281e-02,-2.45117188e-01,-7.91015625e-02,-5.00488281e-03,-2.08984375e-01,4.07714844e-02,-3.39355469e-02,-7.47680664e-03,-8.54492188e-02,1.83105469e-02,-1.22558594e-01,-9.66796875e-02,1.60156250e-01,-1.38549805e-02,-3.41796875e-02,1.87500000e-01,1.23535156e-01,8.74023438e-02,-8.00781250e-02,-1.94091797e-02,-1.00585938e-01,-7.32421875e-03,6.83593750e-02,-9.13085938e-02,8.93554688e-02,9.61914062e-02,-4.57763672e-03,-8.93554688e-02,-1.07421875e-01,-1.85394287e-03,2.26562500e-01,-7.56835938e-03,3.94821167e-04,2.02148438e-01,3.20312500e-01,-4.37011719e-02,3.78906250e-01,-3.90625000e-02,6.15234375e-02,9.71679688e-02,1.37695312e-01,1.00585938e-01,-1.93359375e-01,-2.28515625e-01,3.17382812e-02,-1.41601562e-01,1.32812500e-01,-1.39648438e-01,8.49609375e-02,5.02929688e-02,-1.15234375e-01,-6.64062500e-02,7.47070312e-02,-1.16699219e-01,-3.65234375e-01,2.53906250e-01,1.05468750e-01,2.16796875e-01,3.86718750e-01,1.51367188e-01,-1.44531250e-01,-1.19140625e-01,-1.43554688e-01,1.83593750e-01,-9.76562500e-02,2.26562500e-01,-3.10546875e-01,-9.37500000e-02,2.23388672e-02,7.42187500e-02,4.78515625e-02,1.98242188e-01,-2.89062500e-01,9.57031250e-02,-9.22851562e-02,4.37500000e-01,5.54199219e-02,6.39648438e-02,1.92871094e-02,6.83593750e-02,5.51757812e-02,-2.57812500e-01,-1.41601562e-01,-2.82287598e-03,9.13085938e-02,-2.26562500e-01,-7.37304688e-02,-1.03027344e-01,-1.31835938e-01,-1.27929688e-01,5.76171875e-02,1.10351562e-01,2.46093750e-01,9.42382812e-02,4.76074219e-02,-1.90429688e-01,1.84326172e-02,3.47656250e-01,-2.70996094e-02,9.32617188e-02,9.37500000e-02,1.77734375e-01,-1.25000000e-01,-1.89453125e-01,2.98828125e-01,-1.10839844e-01,-1.08398438e-01,2.05078125e-01,-1.78710938e-01,-2.50244141e-02,4.38690186e-04,-7.56835938e-02,-2.57492065e-04,1.72851562e-01,-3.63769531e-02,1.00097656e-01,-8.20312500e-02,-1.75781250e-01,4.66308594e-02,3.43750000e-01,-1.40625000e-01,-6.10351562e-02,-7.91015625e-02,-7.51953125e-02,-1.31835938e-01,-8.83789062e-02,-1.70898438e-01,-4.39453125e-03,-3.61328125e-02,-1.95312500e-01,-1.85546875e-01,7.81250000e-02,-5.39550781e-02,-7.32421875e-02,1.63085938e-01,-2.20947266e-02,5.07812500e-02,2.12097168e-03,-1.23046875e-01,-2.61718750e-01,-3.75976562e-02,1.35742188e-01,1.01074219e-01,-1.18652344e-01,2.50000000e-01,-1.26342773e-02,1.32812500e-01,1.01074219e-01,1.53320312e-01,2.19726562e-01,-1.86523438e-01,-1.18652344e-01,-1.60156250e-01,-5.98144531e-02,-8.88671875e-02,-2.83813477e-03,2.21679688e-01,5.83496094e-02,3.03955078e-02,1.16210938e-01,6.68334961e-03,2.49023438e-01,1.98974609e-02,-6.54296875e-02,4.88281250e-02,2.83203125e-02,-8.05664062e-02,-2.79296875e-01,-7.86132812e-02,2.81250000e-01,6.54296875e-02,-2.89306641e-02,-2.06298828e-02,1.25976562e-01,1.19628906e-01,8.30078125e-02,1.25732422e-02,-7.22656250e-02,9.70458984e-03,-9.47265625e-02,3.51562500e-02,2.77343750e-01,-1.34765625e-01,-9.03320312e-03,1.31835938e-01,2.26562500e-01,-9.22851562e-02,2.24609375e-02,1.56250000e-01,-1.11816406e-01,2.51953125e-01,1.91406250e-01,-1.19018555e-02,1.22558594e-01,-2.20703125e-01,8.78906250e-03,-1.82617188e-01,6.25000000e-02,-3.14453125e-01,1.90429688e-01,-2.59765625e-01,-1.37695312e-01,-8.05664062e-02,-4.63867188e-02,1.79687500e-01,1.34765625e-01,-4.53948975e-04,-4.10156250e-02,5.78613281e-02,-5.17578125e-02,4.95605469e-02,1.75781250e-01,2.57812500e-01,8.59375000e-02,3.88183594e-02,1.26953125e-01,7.03125000e-02,-1.17797852e-02,6.44531250e-02,-4.76074219e-02,6.59179688e-02,1.69921875e-01,5.63964844e-02,-1.67968750e-01,-4.61425781e-02,-1.35742188e-01,3.78417969e-02,-4.93164062e-02,-1.01074219e-01,6.17675781e-02,-7.08007812e-02,4.88281250e-02,-6.20117188e-02,5.51757812e-02,-8.34960938e-02,-1.51367188e-01,1.34887695e-02,5.39550781e-02,1.37695312e-01,-1.27929688e-01,2.96875000e-01,1.12915039e-02,-4.78744507e-04,-2.49023438e-01,-4.80957031e-02,1.09863281e-03,-4.00390625e-01,-1.02539062e-02,-1.11816406e-01,1.90429688e-01,1.49414062e-01,-1.31835938e-01,-4.41894531e-02,-1.38671875e-01,-8.20312500e-02,-5.27343750e-02,2.71484375e-01
underground
-0.19433594,0.02941895,0.12695312,0.03540039,-0.03979492,0.05883789,-0.39453125,-0.13769531,0.14941406,0.11523438,0.03369141,0.13769531,0.25195312,-0.10205078,-0.12792969,0.02990723,0.08789062,0.09277344,-0.00878906,0.05078125,0.19824219,-0.16113281,-0.28515625,-0.16503906,-0.04223633,-0.07666016,-0.18945312,0.02111816,-0.01831055,-0.6484375,0.0234375,-0.09521484,-0.07128906,0.00921631,-0.17871094,0.02832031,-0.06152344,-0.03808594,0.01879883,-0.03564453,-0.01831055,-0.0703125,0.22949219,-0.15820312,-0.10253906,-0.13476562,-0.22265625,-0.04125977,-0.07714844,0.08984375,0.01055908,0.00552368,0.12304688,-0.01538086,0.20605469,0.09375,0.04467773,0.18164062,0.26953125,0.0324707,0.10449219,-0.25390625,-0.16210938,0.09912109,-0.19433594,-0.21386719,-0.00189209,0.08349609,0.05004883,0.04541016,-0.31835938,-0.0291748,-0.015625,0.06347656,-0.12597656,-0.08447266,0.125,0.18945312,-0.18945312,-0.09228516,-0.11230469,0.10693359,-0.0324707,0.05737305,-0.328125,0.04150391,0.14550781,0.11816406,0.08447266,0.02270508,-0.09863281,-0.08984375,-0.07080078,0.09423828,-0.34765625,0.11181641,-0.22753906,-0.17773438,-0.02600098,-0.00653076,0.09765625,0.07324219,-0.01422119,-0.18261719,0.02075195,0.0008316,-0.04101562,-0.05053711,-0.30859375,-0.18847656,-0.10107422,-0.09130859,-0.05859375,-0.05957031,-0.07617188,0.09375,0.12597656,0.1953125,0.08740234,0.18652344,-0.19335938,-0.3203125,-0.171875,0.26171875,0.02770996,-0.32617188,0.10888672,0.10742188,-0.12597656,0.08349609,0.18652344,0.07958984,0.16210938,0.35351562,-0.21972656,-0.02819824,0.19042969,-0.08349609,-0.07128906,0.35546875,-0.11376953,-0.11572266,-0.09716797,0.37109375,0.06835938,-0.13085938,-0.17675781,0.11474609,-0.46875,-0.02270508,0.23242188,-0.19628906,0.01086426,0.20996094,0.11914062,0.07714844,-0.07421875,0.12695312,0.17382812,-0.14941406,0.24511719,-0.03930664,-0.32421875,0.14160156,-0.09375,-0.08544922,0.19433594,-0.04467773,-0.02636719,-0.03930664,-0.12890625,-0.07714844,0.05737305,0.05517578,0.06542969,-0.15625,-0.28125,-0.0859375,-0.11962891,-0.09472656,0.00482178,0.05908203,-0.23046875,-0.11767578,0.22167969,-0.12158203,-0.04614258,0.06494141,0.08691406,0.5078125,-0.13378906,0.36132812,-0.02758789,0.08935547,-0.10888672,-0.140625,-0.06396484,0.01055908,-0.14257812,0.1171875,0.42773438,0.21777344,-0.03735352,-0.05175781,0.23730469,-0.19433594,-0.06494141,-0.04174805,-0.12695312,0.02307129,0.06982422,-0.0859375,0.03295898,-0.27148438,0.00326538,0.12109375,0.05224609,0.01733398,0.04956055,-0.06176758,-0.00154114,-0.22070312,0.18847656,-0.07226562,-0.078125,0.06542969,-0.22753906,0.14355469,0.04174805,-0.06347656,0.17285156,-0.06054688,-0.17285156,0.30859375,0.1328125,0.06494141,0.17675781,-0.14257812,0.29101562,0.01965332,-0.02429199,-0.10058594,0.08056641,0.01361084,-0.14160156,-0.09130859,0.05371094,0.13769531,-0.03613281,0.02246094,-0.00964355,0.37890625,-0.13964844,-0.00830078,0.37890625,-0.1640625,0.06494141,-0.22265625,-0.29882812,-0.06347656,-0.02282715,-0.37109375,0.19335938,0.47265625,-0.12890625,0.42382812,-0.34179688,-0.12792969,-0.06689453,-0.02526855,0.00765991,-0.14160156,0.26367188,0.10644531,0.32421875,-0.01281738,-0.05224609,-0.2734375,0.35742188,0.02087402,-0.0213623,0.14355469,0.20117188,-0.02929688,-0.05541992,-0.20117188,-0.07470703,0.07568359,0.2578125,0.23730469,-0.20898438,0.05224609,-0.30859375,0.18066406,-0.390625,-0.19726562,0.06835938,0.21972656,0.04956055,0.08007812
cover0.09863281,0.13574219,0.05810547,-0.06396484,0.18847656,0.0045166,0.10351562,0.13769531,0.19140625,-0.03125,-0.04125977,0.13476562,0.10351562,-0.03417969,-0.34375,0.21777344,0.04931641,-0.05126953,0.09033203,-0.14257812,0.20898438,-0.07861328,0.06225586,0.22265625,0.16796875,0.09375,-0.24707031,0.10888672,0.08398438,-0.10888672,-0.25390625,0.08300781,-0.11328125,0.08740234,0.01586914,-0.08300781,0.01220703,-0.07080078,0.14746094,0.1640625,0.1484375,0.00473022,-0.06054688,-0.20410156,-0.06933594,-0.12402344,0.04272461,-0.515625,0.2578125,-0.11328125,-0.02709961,-0.13183594,0.20996094,-0.27539062,-0.28125,0.09912109,0.046875,-0.11083984,0.09716797,-0.07763672,-0.00095367,-0.24609375,0.04174805,-0.20703125,0.10742188,0.24902344,-0.13085938,0.13964844,0.05493164,0.17089844,0.09277344,0.10351562,0.19238281,-0.04125977,-0.2734375,0.13671875,0.07177734,0.04858398,-0.31054688,0.08056641,0.07080078,-0.09472656,-0.10546875,0.28710938,-0.13671875,-0.07177734,-0.01879883,0.19238281,-0.10107422,0.0703125,0.05224609,0.05859375,0.09619141,-0.11816406,-0.12988281,-0.08642578,0.11669922,-0.02661133,-0.00212097,-0.06689453,-0.18847656,-0.0324707,0.03833008,0.03344727,-0.08544922,-0.20019531,0.0402832,-0.203125,0.07861328,-0.21484375,-0.13183594,0.04174805,-0.02441406,0.01434326,-0.11230469,0.06079102,0.24511719,0.00370789,-0.05908203,0.3203125,-0.01696777,-0.2734375,-0.08300781,0.1484375,0.26757812,0.07275391,0.01086426,0.17285156,0.2578125,0.01806641,-0.00482178,-0.05053711,0.06542969,0.02050781,-0.02050781,-0.01306152,-0.0390625,-0.09521484,0.24023438,-0.12695312,0.07910156,-0.02197266,-0.01251221,0.13574219,0.05200195,-0.08740234,-0.06030273,-0.06884766,-0.26171875,0.08642578,0.09082031,-0.13964844,0.265625,-0.06201172,0.09228516,-0.10839844,-0.16015625,-0.11816406,-0.11035156,-0.00964355,0.15722656,-0.09863281,-0.04321289,-0.00946045,-0.09375,0.01184082,0.1640625,-0.11474609,-0.04833984,0.05834961,0.05200195,-0.18359375,0.01855469,-0.07861328,-0.08154297,-0.00179291,0.11425781,-0.12402344,-0.15625,-0.05102539,-0.29882812,-0.08740234,-0.03271484,-0.04907227,-0.24707031,-0.0456543,0.00558472,-0.05322266,0.25585938,0.19726562,0.31835938,-0.14941406,0.17382812,-0.18359375,-0.19238281,0.30664062,0.11181641,-0.11230469,0.11621094,-0.16503906,0.1328125,0.04736328,-0.15429688,-0.09375,0.21679688,0.0246582,-0.375,-0.10986328,0.10449219,0.08105469,0.11083984,0.05322266,0.15625,-0.04174805,0.08984375,0.11181641,0.36132812,-0.08251953,-0.12988281,-0.25,0.09423828,-0.02404785,0.11621094,-0.171875,0.16894531,0.21679688,-0.04003906,0.03063965,0.19042969,-0.16503906,0.07128906,0.12207031,0.21777344,0.16992188,-0.02746582,0.01599121,0.08105469,0.04052734,-0.12890625,-0.15039062,-0.08496094,0.08984375,0.06225586,-0.00598145,0.05639648,0.18847656,-0.01550293,-0.109375,-0.16015625,0.00325012,0.0625,0.00628662,-0.10742188,0.05737305,0.04833984,-0.01647949,-0.07666016,0.13476562,0.01867676,0.09765625,-0.08349609,0.08056641,-0.13378906,-0.13574219,0.05639648,0.078125,-0.16015625,0.01513672,0.09912109,-0.32226562,-0.00939941,0.02905273,0.35742188,0.04785156,0.29882812,-0.08203125,0.03735352,-0.13574219,-0.03955078,-0.05053711,-0.00270081,0.11035156,0.25195312,0.04931641,0.09082031,-0.17382812,-0.06835938,-0.08007812,-0.00315857,-0.02844238,-0.02233887,-0.0402832,0.03344727,0.13476562,-0.11425781,0.10400391,0.01477051,-0.06176758,-0.03808594,0.10546875
forbidden0.18945312,-0.3203125,0.234375,-0.00622559,-0.3515625,0.06640625,-0.07861328,0.07128906,0.16503906,0.03369141,0.171875,-0.32421875,-0.2421875,-0.05541992,-0.69921875,0.2890625,0.0703125,-0.21582031,0.06079102,0.07373047,0.32617188,-0.421875,-0.2109375,0.01495361,0.12792969,-0.21289062,0.27539062,0.26757812,0.03344727,0.05615234,-0.125,-0.21484375,0.04492188,0.02612305,-0.12890625,-0.171875,0.03417969,-0.3125,-0.13085938,-0.16015625,0.30273438,-0.05224609,0.29101562,-0.140625,0.10009766,-0.0112915,0.01721191,-0.0324707,-0.03491211,-0.30078125,-0.11474609,-0.08691406,-0.08691406,0.23535156,-0.07861328,0.05541992,0.0213623,-0.05932617,0.13671875,-0.1484375,0.0534668,-0.27539062,0.23339844,0.13085938,-0.06005859,0.140625,-0.02111816,0.359375,-0.3828125,0.0378418,-0.07568359,-0.04248047,-0.11962891,0.10595703,0.07958984,-0.18359375,0.11230469,-0.05981445,0.04614258,0.27734375,0.00257874,-0.29296875,0.20605469,-0.07958984,-0.29882812,0.05737305,-0.05249023,0.02111816,0.18261719,0.08984375,-0.13671875,-0.24511719,0.04052734,-0.00485229,0.03320312,-0.18164062,0.35742188,-0.01721191,0.01721191,0.07568359,-0.05541992,0.21191406,-0.29492188,0.30859375,0.01928711,-0.12304688,0.06738281,-0.12988281,0.08691406,-0.17480469,-0.04711914,0.21582031,0.26757812,0.10742188,0.14550781,0.05151367,0.41601562,-0.09863281,0.05957031,0.01196289,-0.00897217,-0.01635742,0.0859375,0.02514648,-0.03198242,-0.3828125,-0.08300781,-0.02490234,-0.06347656,0.20507812,-0.08007812,0.01013184,0.00570679,0.17089844,0.02722168,-0.12695312,0.00558472,0.00280762,0.23144531,-0.1875,0.12890625,0.01397705,-0.00390625,-0.04174805,-0.07177734,-0.19140625,-0.25976562,0.08691406,-0.04882812,-0.22070312,0.5234375,0.23828125,-0.05981445,-0.125,-0.05200195,0.29101562,-0.20800781,-0.1015625,-0.12597656,-0.10009766,-0.14648438,0.06298828,0.21484375,0.10644531,0.03063965,0.06494141,0.1953125,-0.04956055,-0.07373047,-0.08642578,-0.22070312,-0.02783203,0.12011719,-0.14160156,0.13378906,0.03271484,0.23242188,-0.29101562,-0.21484375,-0.34765625,-0.08105469,-0.05126953,0.04345703,-0.04296875,0.19628906,-0.16015625,0.15917969,0.00430298,-0.11035156,0.27734375,0.125,0.33203125,0.14355469,0.03637695,-0.14160156,0.05444336,-0.21289062,-0.13085938,-0.2578125,-0.09472656,0.390625,0.11572266,0.09667969,-0.26757812,-0.01159668,0.20996094,0.10058594,0.06787109,-0.23925781,-0.0378418,-0.14257812,-0.11621094,-0.05029297,-0.18066406,0.12597656,0.06835938,-0.02001953,0.11523438,-0.00159454,-0.14355469,-0.11914062,-0.33203125,-0.10498047,-0.06005859,0.02355957,-0.06347656,0.09472656,0.16894531,-0.10205078,-0.11767578,0.27734375,-0.14355469,-0.07666016,0.5546875,0.30078125,-0.30859375,0.15332031,0.01879883,0.13378906,0.03979492,0.14941406,-0.09472656,0.03881836,0.03100586,0.22460938,-0.00361633,-0.22167969,0.17773438,0.01190186,-0.19824219,0.05175781,-0.02368164,0.44140625,-0.17773438,0.12988281,-0.08398438,-0.13867188,-0.44921875,0.10839844,0.30859375,-0.00741577,0.03320312,-0.06494141,0.17578125,-0.17871094,-0.26953125,-0.24707031,0.00656128,0.30664062,-0.31640625,0.19238281,0.11132812,0.11914062,-0.06787109,0.04467773,-0.24316406,-0.18164062,0.015625,-0.1953125,0.07226562,0.15429688,0.14160156,0.02697754,0.03710938,0.09912109,0.15332031,-0.39453125,0.22363281,-0.08740234,-0.04931641,-0.18457031,-0.12597656,0.00524902,-0.23828125,-0.25976562,0.04492188,0.07714844,-0.20507812,-0.19824219,0.23730469
banned0.0300293,-0.33398438,0.48242188,-0.24511719,-0.1640625,-0.25585938,-0.46484375,0.00823975,0.25390625,-0.12207031,0.31640625,-0.36132812,-0.12597656,0.00692749,-0.40625,0.36523438,0.01635742,-0.15234375,-0.11474609,-0.02026367,0.35546875,-0.15820312,-0.1484375,0.08447266,-0.078125,-0.14257812,0.23828125,0.06201172,0.25195312,0.05493164,-0.14355469,-0.08544922,-0.08105469,0.17382812,0.23046875,-0.08837891,-0.35546875,-0.23046875,-0.20214844,0.19042969,0.28125,-0.34570312,0.13378906,-0.14648438,0.00379944,-0.08837891,-0.11083984,-0.06445312,-0.15234375,-0.21972656,-0.06689453,-0.02709961,-0.08984375,0.00375366,0.15722656,-0.28320312,0.15234375,-0.21582031,0.29101562,-0.30859375,-0.20117188,-0.07421875,0.28320312,0.12402344,-0.09521484,0.14941406,-0.04321289,0.484375,-0.29101562,0.10449219,-0.06591797,-0.02490234,-0.07324219,0.22265625,-0.125,-0.03149414,0.08984375,-0.28125,0.11621094,0.21582031,0.10693359,-0.42773438,0.31835938,0.04931641,-0.24316406,0.08300781,-0.03491211,-0.06298828,0.16894531,0.15234375,-0.15136719,-0.26757812,0.21875,-0.12988281,-0.2890625,-0.09765625,0.04663086,-0.07910156,0.06689453,0.17382812,-0.0201416,0.49023438,-0.27539062,0.25976562,0.20800781,-0.1640625,0.04956055,-0.03491211,0.28320312,-0.17089844,0.02380371,0.33203125,0.1640625,0.05395508,-0.12988281,-0.39453125,0.01098633,0.03149414,0.33984375,0.08300781,0.31835938,0.03295898,-0.05981445,0.00124359,0.07861328,-0.34765625,-0.00236511,0.00698853,-0.00540161,-0.16601562,0.13671875,-0.0111084,-0.16503906,-0.03088379,-0.33398438,-0.12695312,-0.07910156,0.02172852,-0.24609375,-0.01574707,0.14648438,0.0703125,0.20019531,-0.06640625,0.359375,-0.17675781,-0.30859375,0.02539062,0.06201172,-0.29101562,0.33984375,0.10986328,-0.296875,-0.21386719,-0.09179688,0.01623535,-0.08398438,-0.15429688,-0.17285156,-0.16601562,0.08251953,-0.07958984,0.44140625,0.08154297,-0.12011719,-0.04345703,0.19433594,-0.07275391,-0.09472656,0.01586914,-0.46484375,0.03808594,0.02734375,-0.16699219,0.12597656,0.06933594,0.27539062,-0.2734375,-0.34570312,0.08154297,-0.02941895,0.22167969,0.05639648,0.02319336,0.26171875,-0.0546875,-0.0291748,0.1640625,-0.22265625,0.38085938,0.00964355,0.31445312,0.11474609,0.09423828,-0.0559082,-0.09814453,0.12597656,-0.35351562,0.06103516,0.01031494,0.38867188,-0.00970459,0.109375,-0.11181641,0.05639648,0.11132812,0.20605469,-0.0534668,-0.08496094,-0.12597656,-0.07617188,-0.01092529,0.10986328,-0.109375,0.17871094,-0.10351562,-0.12988281,-0.06933594,0.0703125,-0.2734375,-0.08642578,-0.51171875,-0.21777344,0.09423828,0.09228516,-0.19628906,-0.1953125,-0.00994873,0.08300781,-0.12695312,0.19335938,-0.20507812,0.16894531,0.44921875,0.16894531,-0.19628906,0.3203125,0.06982422,0.10449219,-0.04077148,0.02062988,0.00909424,0.04785156,-0.10253906,0.08642578,0.23339844,-0.2890625,0.1484375,0.05615234,-0.359375,0.15527344,0.05688477,0.13867188,0.02160645,0.1015625,0.08496094,-0.11328125,-0.12597656,0.1171875,0.23242188,-0.02941895,0.1484375,0.33398438,0.19140625,0.14257812,-0.44726562,-0.52734375,0.0612793,0.41210938,-0.26757812,0.24609375,0.12988281,0.1640625,-0.171875,0.125,-0.359375,-0.4609375,-0.0625,-0.07666016,-0.00799561,0.11572266,0.22949219,0.10986328,0.01452637,-0.40429688,0.09277344,-0.45703125,0.13183594,0.08056641,-0.015625,0.06542969,-0.00512695,0.13574219,-0.21191406,-0.10107422,-0.15136719,0.35546875,-0.23339844,-0.10742188,0.08398438
agenda3.32031250e-02,1.43554688e-01,-2.57568359e-02,2.24609375e-01,-6.39648438e-02,-2.94921875e-01,1.12304688e-01,1.34765625e-01,-3.41796875e-02,-1.72851562e-01,-8.25195312e-02,-7.56835938e-03,2.51953125e-01,-9.96093750e-02,-1.64062500e-01,2.75390625e-01,6.83593750e-02,9.37500000e-02,3.92578125e-01,-1.12304688e-01,2.14843750e-01,1.59179688e-01,1.02050781e-01,4.16015625e-01,-2.09960938e-01,2.36328125e-01,2.04101562e-01,1.18652344e-01,7.93457031e-03,1.58203125e-01,1.40625000e-01,-1.21582031e-01,-1.65039062e-01,1.55639648e-02,4.29687500e-02,-1.76757812e-01,2.98828125e-01,3.00781250e-01,1.89453125e-01,-9.71679688e-02,1.94335938e-01,2.14843750e-01,-2.05078125e-01,1.82617188e-01,-7.91015625e-02,-2.39257812e-01,2.67578125e-01,-2.24609375e-01,-1.54296875e-01,1.27929688e-01,-5.88378906e-02,9.05990601e-05,-8.83789062e-02,9.86328125e-02,1.79687500e-01,4.85839844e-02,-5.93261719e-02,-1.61132812e-02,1.89453125e-01,-1.75781250e-02,-4.05273438e-02,-8.00781250e-02,-3.04687500e-01,1.04370117e-02,1.11328125e-01,8.54492188e-02,-2.46582031e-02,2.50000000e-01,1.05957031e-01,1.41143799e-04,-7.37304688e-02,1.96289062e-01,1.65039062e-01,1.16699219e-01,1.26953125e-01,-2.87109375e-01,2.15820312e-01,-7.91015625e-02,-5.00488281e-03,-6.59179688e-02,2.03125000e-01,9.86328125e-02,-1.62109375e-01,-5.17578125e-02,1.12792969e-01,-1.90429688e-01,-2.06298828e-02,-7.56835938e-02,2.08984375e-01,-2.11181641e-02,1.55273438e-01,-3.43750000e-01,-4.17480469e-02,-2.59765625e-01,-5.43212891e-03,-4.06250000e-01,1.64062500e-01,-3.28125000e-01,-1.98974609e-02,1.34887695e-02,8.30078125e-03,2.18750000e-01,4.12597656e-02,1.19140625e-01,3.63769531e-02,1.85546875e-02,-5.95703125e-02,-3.92578125e-01,2.65625000e-01,-1.99218750e-01,6.78710938e-02,-1.34765625e-01,-1.78222656e-02,3.54003906e-02,-1.42578125e-01,5.34667969e-02,2.48046875e-01,1.59454346e-03,1.44531250e-01,1.19140625e-01,9.22851562e-02,-1.58691406e-02,8.69140625e-02,1.33789062e-01,-3.55468750e-01,-7.22656250e-02,-5.51757812e-02,1.08398438e-01,-1.19140625e-01,-1.05957031e-01,1.32812500e-01,-1.23046875e-01,1.35742188e-01,-1.38671875e-01,-1.67968750e-01,2.48046875e-01,-1.02050781e-01,1.26953125e-01,-5.32226562e-02,5.41992188e-02,1.13281250e-01,-2.64892578e-02,1.55273438e-01,-1.33789062e-01,-3.46374512e-03,-1.13769531e-01,-8.49609375e-02,-8.00781250e-02,-1.42822266e-02,2.37304688e-01,2.57812500e-01,-1.44531250e-01,6.73828125e-02,1.87500000e-01,-6.25610352e-03,-7.03125000e-02,-3.43750000e-01,-1.77734375e-01,-8.64257812e-02,-2.46093750e-01,-2.29492188e-01,6.22558594e-02,-5.61523438e-02,8.54492188e-02,-2.12402344e-02,-4.66308594e-02,-3.76892090e-03,9.91210938e-02,-4.07714844e-02,8.64257812e-02,4.05273438e-02,1.51367188e-01,-1.61132812e-01,-1.53320312e-01,5.17578125e-02,-3.49609375e-01,1.54418945e-02,-1.25976562e-01,-8.25195312e-02,-1.71875000e-01,-3.59375000e-01,-2.86865234e-02,1.77734375e-01,2.71484375e-01,1.13281250e-01,1.08642578e-02,-2.00195312e-01,2.37304688e-01,3.63769531e-02,2.43164062e-01,2.27539062e-01,1.04003906e-01,2.17285156e-02,3.98437500e-01,-5.73730469e-02,1.94335938e-01,-9.17968750e-02,3.88671875e-01,1.75781250e-01,3.85742188e-02,-4.85839844e-02,1.14135742e-02,-6.54296875e-02,-2.65625000e-01,3.54003906e-02,1.01562500e-01,1.92382812e-01,-2.36816406e-02,2.41210938e-01,-1.93359375e-01,-6.07910156e-02,9.17968750e-02,-1.29882812e-01,6.34765625e-02,7.32421875e-02,2.19726562e-01,-2.15820312e-01,1.92382812e-01,1.66015625e-01,1.43554688e-01,-3.47656250e-01,1.48437500e-01,1.40625000e-01,2.26562500e-01,-1.11816406e-01,-2.26562500e-01,5.17578125e-02,2.53906250e-01,8.74023438e-02,2.79296875e-01,-7.76367188e-02,4.80957031e-02,2.61230469e-02,1.12792969e-01,1.98242188e-01,1.98242188e-01,2.03125000e-01,7.42187500e-02,2.63671875e-01,-2.05078125e-01,1.32812500e-01,2.94921875e-01,-4.10156250e-02,1.08337402e-03,1.49414062e-01,1.04492188e-01,-3.71093750e-02,-1.53320312e-01,9.57031250e-02,1.78710938e-01,-3.30078125e-01,2.48046875e-01,-1.81640625e-01,6.93359375e-02,1.61132812e-02,-7.42187500e-02,-1.25732422e-02,-1.47460938e-01,-7.93457031e-03,-1.77734375e-01,7.27539062e-02,-1.28906250e-01,-1.76757812e-01,-5.17578125e-02,-1.24023438e-01,3.43750000e-01,-2.21679688e-01,4.54101562e-02,-4.57031250e-01,-9.57031250e-02,-9.17968750e-02,1.03027344e-01,4.17480469e-02,2.63671875e-01,-1.86523438e-01,3.71093750e-02,1.93359375e-01,-1.36718750e-01,-1.28906250e-01,1.88476562e-01,2.55859375e-01,-1.43554688e-01,-3.88183594e-02,4.25781250e-01,-1.75781250e-01,1.66015625e-01,-2.25585938e-01,5.51757812e-02,1.94335938e-01,-4.17480469e-02,-1.08886719e-01,-3.08593750e-01,2.77099609e-02,1.77734375e-01,-1.61132812e-01,-2.03125000e-01,9.42382812e-02,-5.98144531e-02,4.85839844e-02,-9.37500000e-02
insider0.06225586,-0.14941406,-0.20898438,-0.44335938,0.13671875,0.2421875,-0.01806641,0.08251953,0.20410156,-0.00823975,-0.05859375,-0.12988281,0.24511719,0.09375,-0.26367188,0.20996094,-0.30078125,-0.09716797,-0.01196289,-0.2734375,0.10107422,-0.11816406,0.22558594,-0.11767578,0.484375,0.28125,0.17382812,0.08349609,-0.27539062,-0.16796875,0.18652344,0.1640625,-0.18847656,0.17578125,0.28320312,-0.17675781,0.08837891,-0.14160156,-0.06054688,-0.03759766,0.10253906,-0.34179688,-0.19921875,0.03417969,0.10644531,-0.22558594,-0.09912109,-0.14648438,0.19628906,-0.05981445,-0.06445312,-0.08007812,-0.15039062,0.05834961,-0.14648438,0.18945312,0.02600098,-0.21582031,0.23828125,-0.10302734,0.01708984,0.00634766,-0.16308594,0.14550781,-0.05493164,-0.2109375,-0.19726562,0.39453125,0.3515625,0.02966309,0.04223633,0.11523438,0.14648438,-0.00491333,-0.01367188,0.2890625,0.05297852,0.3203125,0.03222656,-0.015625,0.1640625,-0.05200195,-0.02258301,-0.09960938,0.1484375,-0.06787109,0.04931641,0.15234375,0.10595703,0.07421875,0.15722656,0.05883789,-0.20214844,0.30273438,-0.07519531,-0.15722656,0.01708984,0.08447266,0.08691406,-0.16015625,0.16308594,0.15527344,0.01470947,-0.22753906,0.11181641,-0.02612305,-0.05786133,-0.0703125,0.24511719,-0.14160156,-0.01733398,-0.10595703,-0.14257812,-0.33203125,0.12890625,0.37890625,0.32421875,0.0703125,0.37695312,-0.05932617,0.0378418,-0.01300049,-0.09130859,-0.07910156,0.13476562,-0.27148438,0.19824219,-0.26953125,0.14257812,0.15429688,-0.23828125,-0.36132812,-0.13867188,0.29101562,0.00081253,-0.13964844,0.17773438,0.01708984,-0.15429688,0.02746582,0.07275391,-0.16601562,-0.078125,0.32421875,0.07421875,-0.265625,-0.15625,-0.04736328,0.02783203,0.09570312,0.14160156,0.22167969,0.09179688,-0.14648438,-0.125,-0.0189209,-0.03466797,-0.34765625,-0.09033203,-0.14160156,-0.18945312,0.16796875,-0.00315857,0.35742188,-0.21386719,-0.1484375,-0.1640625,-0.12207031,0.02600098,0.35742188,-0.11425781,-0.19921875,0.12304688,-0.19824219,0.0291748,-0.04370117,-0.05981445,-0.16796875,0.4453125,-0.17578125,-0.09619141,-0.06396484,0.31640625,-0.25,-0.07666016,-0.19921875,0.11914062,0.30273438,-0.06787109,0.04101562,0.16601562,0.24902344,0.13671875,0.11914062,0.17382812,0.11328125,-0.26757812,-0.05615234,-0.08642578,-0.01586914,0.00970459,0.14355469,0.02954102,0.15625,0.04418945,-0.05078125,-0.17382812,0.01379395,-0.06542969,0.13964844,-0.16308594,0.0133667,-0.02539062,0.05541992,0.16015625,0.18847656,0.12890625,0.17382812,0.24023438,-0.13769531,0.06005859,0.12451172,0.03466797,0.19335938,-0.0859375,0.0088501,0.3828125,0.203125,0.13476562,-0.13867188,-0.14257812,0.00534058,-0.0546875,-0.19433594,0.17382812,-0.27734375,0.22949219,0.23046875,-0.04614258,-0.05883789,0.3125,-0.11865234,-0.16503906,-0.24609375,-0.01708984,0.10986328,-0.22949219,0.02197266,0.07519531,-0.05737305,0.02856445,0.15527344,-0.03417969,-0.04394531,0.05810547,0.32226562,-0.05834961,0.12988281,-0.48632812,-0.12988281,0.01831055,-0.22167969,0.15332031,0.09912109,-0.08544922,0.09667969,-0.35742188,0.203125,-0.07275391,-0.36132812,-0.04516602,0.16894531,0.17285156,-0.02453613,-0.10644531,-0.0703125,0.41992188,-0.13574219,0.4296875,0.42773438,-0.22167969,-0.01544189,-0.28515625,0.00306702,0.04760742,-0.34570312,-0.29101562,0.07910156,0.07617188,0.0546875,0.06982422,-0.04125977,0.0144043,-0.15527344,-0.2578125,-0.18457031,0.20507812,0.10302734,0.05541992,0.06542969
blacklisted
-0.12792969,0.06689453,0.31054688,-0.01428223,-0.10644531,-0.11914062,-0.45507812,-0.02575684,0.42382812,-0.05761719,0.42773438,-0.11767578,-0.41992188,-0.11914062,-0.3203125,0.34960938,0.22851562,0.07373047,-0.4140625,-0.04052734,0.19335938,-0.02514648,-0.06176758,-0.02539062,0.38476562,-0.0625,0.13476562,-0.23632812,0.11669922,-0.07226562,-0.10888672,-0.29882812,0.13867188,0.16992188,0.20117188,-0.23925781,-0.20214844,0.07128906,-0.10693359,-0.09716797,0.29492188,-0.28125,-0.19726562,-0.40625,-0.01049805,-0.02429199,-0.32617188,-0.14941406,-0.34375,0.12890625,0.01519775,-0.03491211,0.06494141,0.04101562,0.03515625,-0.23730469,0.18457031,-0.22265625,0.12158203,-0.10742188,0.34765625,0.03564453,0.16210938,0.18554688,-0.07421875,0.15722656,0.02575684,0.09375,0.03491211,-0.02270508,-0.02050781,0.05932617,0.02124023,0.00735474,-0.078125,-0.07568359,0.33984375,0.2109375,0.15234375,0.30078125,-0.11181641,-0.06835938,0.07519531,0.09960938,-0.265625,0.07470703,-0.10693359,-0.32617188,0.03076172,-0.12988281,0.17773438,-0.16796875,-0.0088501,-0.15429688,0.00787354,-0.07617188,-0.00787354,0.12890625,0.00772095,-0.10253906,-0.02429199,0.15332031,-0.14648438,0.06005859,0.13964844,0.13574219,-0.31640625,0.07763672,0.51953125,0.02319336,-0.08203125,-0.19140625,0.17382812,-0.22265625,-0.11767578,-0.03149414,-0.00408936,0.05859375,0.47460938,0.16601562,-0.01177979,0.11962891,-0.10546875,0.06445312,-0.19726562,0.0177002,0.09570312,0.06030273,-0.15136719,-0.38085938,0.22460938,0.17773438,0.34570312,0.18554688,-0.23632812,-0.27929688,-0.08886719,0.05224609,-0.24609375,0.02966309,-0.05004883,-0.01757812,-0.09960938,-0.16210938,0.36914062,-0.37695312,-0.18359375,0.16894531,-0.1640625,-0.12011719,0.16308594,0.08007812,0.0402832,0.13183594,-0.11767578,-0.06884766,-0.31640625,-0.07177734,-0.02209473,-0.10595703,-0.09082031,0.06933594,0.01794434,-0.04760742,-0.13769531,-0.23632812,0.17382812,0.22851562,-0.37304688,0.19628906,-0.27734375,0.25976562,0.07128906,-0.20214844,-0.00836182,-0.23339844,0.1953125,-0.27539062,-0.11962891,0.10205078,0.04394531,-0.11279297,-0.05273438,-0.10742188,-0.02404785,0.00793457,-0.02575684,0.00328064,-0.20214844,0.11083984,-0.12451172,0.0703125,-0.22070312,0.16015625,0.12255859,0.14160156,-0.15234375,-0.31835938,0.2578125,0.21679688,0.43945312,0.06079102,0.41601562,0.08349609,-0.1171875,-0.125,-0.21582031,0.06103516,-0.12255859,-0.11816406,0.22949219,-0.03442383,0.15039062,0.13574219,0.24414062,-0.07177734,0.0300293,0.00952148,0.0612793,-0.296875,0.125,-0.19921875,-0.26367188,0.33398438,0.14453125,0.09033203,-0.0402832,0.15917969,-0.42578125,-0.31445312,-0.00500488,-0.24609375,-0.21972656,0.12792969,0.22460938,-0.38476562,0.65234375,0.03637695,-0.07275391,-0.08300781,-0.04296875,-0.38867188,-0.42773438,-0.20214844,-0.12451172,0.21972656,-0.36328125,0.08984375,-0.32617188,-0.31640625,0.01452637,-0.21386719,-0.05200195,-0.02380371,-0.16015625,-0.06152344,0.12597656,0.08642578,-0.00512695,-0.19824219,-0.06542969,0.13183594,0.15820312,0.04614258,0.12695312,-0.21875,-0.609375,0.10546875,0.21875,-0.23144531,0.12109375,0.24121094,0.08300781,-0.19042969,-0.17773438,-0.10888672,-0.4609375,-0.06835938,-0.1640625,0.18945312,-0.42382812,0.19238281,-0.23144531,0.06396484,-0.11767578,-0.01879883,-0.2734375,0.22949219,0.125,-0.03149414,-0.02075195,0.37304688,-0.14160156,-0.12402344,0.0300293,0.03198242,0.06347656,0.23144531,-0.11230469,-0.14160156
censored
-1.97265625e-01,-3.00781250e-01,2.02148438e-01,1.27929688e-01,-3.80859375e-01,-1.58203125e-01,8.66699219e-03,2.49023438e-01,6.83593750e-01,1.23535156e-01,7.71484375e-02,-4.02343750e-01,-2.16796875e-01,-4.29687500e-02,-1.41601562e-01,2.85156250e-01,1.66015625e-01,-3.06640625e-01,-2.79541016e-02,-3.63281250e-01,5.23437500e-01,1.46484375e-01,2.16796875e-01,1.73339844e-02,-7.08007812e-02,-1.36718750e-01,3.00781250e-01,3.83300781e-02,5.66406250e-01,2.55859375e-01,-1.46484375e-01,-1.22070312e-01,-4.98046875e-01,2.03125000e-01,-6.05468750e-02,-1.94335938e-01,-1.47094727e-02,1.79687500e-01,-9.81445312e-02,1.63085938e-01,-1.03515625e-01,-4.78515625e-02,-4.15039062e-02,9.71679688e-02,7.95898438e-02,-9.47265625e-02,-4.60937500e-01,-2.04101562e-01,-3.78906250e-01,-2.69531250e-01,-1.09375000e-01,-2.09960938e-01,-3.96484375e-01,-7.22656250e-02,-6.22558594e-03,-9.09423828e-03,2.28271484e-02,-3.39843750e-01,4.66308594e-02,2.61718750e-01,1.71875000e-01,-9.37500000e-02,7.61718750e-02,-1.61132812e-01,-4.23828125e-01,-9.66796875e-02,-2.96875000e-01,-6.83593750e-02,3.71093750e-01,2.22656250e-01,-1.52343750e-01,-7.42187500e-02,-2.26562500e-01,5.71289062e-02,-1.37695312e-01,1.31835938e-01,5.15625000e-01,-4.88281250e-02,2.65625000e-01,1.89453125e-01,2.09960938e-02,3.22265625e-01,2.01171875e-01,2.61718750e-01,-3.75000000e-01,1.03027344e-01,-1.89453125e-01,2.87109375e-01,-2.02636719e-02,2.43164062e-01,1.67968750e-01,-4.02343750e-01,1.35742188e-01,2.90572643e-06,2.85156250e-01,-4.64843750e-01,7.23266602e-03,-1.96533203e-02,7.86132812e-02,1.52343750e-01,-1.22070312e-01,2.18750000e-01,-2.26020813e-04,-1.69921875e-01,1.78710938e-01,-1.06445312e-01,-1.95312500e-01,-1.19140625e-01,-1.80664062e-02,-2.02148438e-01,-9.22851562e-02,-3.10546875e-01,8.93554688e-02,-2.14843750e-01,-4.31640625e-01,-2.92968750e-01,9.42382812e-02,3.66210938e-02,5.66406250e-01,1.55273438e-01,-7.38525391e-03,-5.07812500e-02,-7.93457031e-03,1.27929688e-01,-1.78710938e-01,-7.42187500e-02,-1.11328125e-01,1.23535156e-01,-2.01171875e-01,-3.63281250e-01,-2.43164062e-01,7.51953125e-02,-1.15722656e-01,2.51953125e-01,6.17675781e-02,6.83593750e-02,-3.05175781e-02,4.19921875e-02,8.54492188e-02,-2.11914062e-01,2.46093750e-01,-4.76562500e-01,1.69921875e-01,-2.77099609e-02,6.59179688e-02,-7.95898438e-02,-3.22265625e-02,1.67968750e-01,-1.15722656e-01,1.70898438e-02,3.12500000e-02,1.33789062e-01,1.43554688e-01,3.30078125e-01,-2.95410156e-02,-5.42968750e-01,-3.22265625e-01,-3.26171875e-01,-1.92382812e-01,2.94921875e-01,-8.39843750e-02,3.73046875e-01,-2.84423828e-02,2.59765625e-01,-1.08642578e-02,-5.93750000e-01,-2.24609375e-01,2.10937500e-01,-1.65039062e-01,-6.44531250e-02,-1.40991211e-02,2.13867188e-01,-6.64062500e-02,1.25000000e-01,1.48437500e-01,-4.27246094e-02,8.49609375e-02,-1.36718750e-01,-3.80859375e-01,-1.92382812e-01,-9.81445312e-02,5.98144531e-02,-2.48046875e-01,-6.39648438e-02,-1.92382812e-01,4.27246094e-02,-1.38671875e-01,5.61523438e-02,-5.61523438e-02,3.51562500e-01,3.04687500e-01,6.68945312e-02,-2.07031250e-01,-5.27343750e-02,-4.51660156e-03,-9.42382812e-02,-8.30078125e-02,-4.39453125e-01,1.83105469e-02,5.03906250e-01,-4.00390625e-02,5.22460938e-02,3.69140625e-01,5.54199219e-02,6.95800781e-03,-2.65625000e-01,-3.45703125e-01,-2.38281250e-01,-3.98437500e-01,3.34472656e-02,-6.12792969e-02,-7.41577148e-03,-7.47070312e-02,-1.57226562e-01,3.43750000e-01,4.02832031e-02,9.08203125e-02,5.12695312e-02,-1.06445312e-01,-3.47656250e-01,-3.63769531e-02,-2.92968750e-01,-1.68945312e-01,-2.18750000e-01,2.17773438e-01,-2.75390625e-01,-8.59375000e-02,5.58593750e-01,-3.24218750e-01,-3.32031250e-01,-7.71484375e-02,-2.19726562e-01,-1.04003906e-01,2.41210938e-01,4.14062500e-01,-2.41210938e-01,1.85546875e-01,1.32812500e-01,3.26171875e-01,-5.81054688e-02,5.73730469e-02,-2.92968750e-01,6.22558594e-02,-3.26171875e-01,-3.28063965e-03,2.02148438e-01,-9.91210938e-02,4.78515625e-01,-2.10937500e-01,7.12890625e-02,-2.94921875e-01,9.86328125e-02,-4.95605469e-02,1.59179688e-01,1.17187500e-01,-1.42822266e-02,-3.51562500e-01,-5.85937500e-02,2.43164062e-01,1.30859375e-01,-8.74023438e-02,2.24609375e-01,4.76562500e-01,1.23046875e-01,1.96289062e-01,3.51562500e-02,-3.35937500e-01,8.30078125e-03,1.76757812e-01,-3.12500000e-02,6.49414062e-02,1.63574219e-02,2.25585938e-01,3.35937500e-01,3.04687500e-01,-2.63671875e-01,-4.02343750e-01,-1.03027344e-01,-1.67968750e-01,3.90625000e-01,-1.93359375e-01,-4.80957031e-02,-5.56640625e-02,-1.21459961e-02,-5.02929688e-02,-2.39257812e-01,1.05957031e-01,3.28125000e-01,1.16210938e-01,-2.56347656e-02,1.02050781e-01,-1.37695312e-01,3.43322754e-03,2.17773438e-01,1.35742188e-01,-1.69921875e-01,1.11328125e-01,4.27246094e-02,-1.58203125e-01,3.66210938e-02
concealed1.11816406e-01,-4.91333008e-03,-6.54296875e-02,-1.78710938e-01,-8.15429688e-02,-2.00195312e-01,-3.63769531e-02,3.26171875e-01,2.03125000e-01,1.26953125e-01,1.56250000e-01,-2.36328125e-01,-1.06933594e-01,1.13769531e-01,-1.31835938e-01,6.54296875e-02,-5.59082031e-02,2.36328125e-01,-2.19726562e-01,1.36718750e-01,1.01074219e-01,-1.54296875e-01,-2.08007812e-01,1.67846680e-03,4.95605469e-02,-3.00781250e-01,3.58886719e-02,8.00781250e-02,5.40161133e-03,-3.22265625e-01,-2.52685547e-02,-6.64062500e-02,-4.27246094e-02,2.42919922e-02,-1.84326172e-02,-1.83593750e-01,7.99560547e-03,-1.17675781e-01,-3.59375000e-01,-8.05664062e-02,-4.10156250e-02,3.51562500e-01,-8.78906250e-03,-3.47656250e-01,9.52148438e-02,-1.69921875e-01,-1.43432617e-02,-1.04492188e-01,2.02148438e-01,-1.00585938e-01,-4.80957031e-02,-2.81250000e-01,1.17675781e-01,-1.14746094e-01,-1.79687500e-01,-1.33789062e-01,-7.47070312e-02,-3.43750000e-01,2.24609375e-01,-6.25000000e-02,-1.37695312e-01,7.86132812e-02,9.47265625e-02,-2.49023438e-02,5.39550781e-02,7.42187500e-02,-9.61914062e-02,3.61328125e-01,-3.15856934e-03,-1.77734375e-01,3.22265625e-01,1.95312500e-01,2.53906250e-01,5.22613525e-04,-9.13085938e-02,2.55859375e-01,1.94335938e-01,1.41601562e-01,-1.60156250e-01,1.52343750e-01,-1.52343750e-01,-4.86328125e-01,-2.49023438e-01,-3.78417969e-02,-6.54296875e-02,-9.86328125e-02,5.37109375e-02,2.11914062e-01,-2.50000000e-01,3.04687500e-01,-1.66015625e-01,-8.49609375e-02,1.13281250e-01,4.16015625e-01,2.23632812e-01,-2.81250000e-01,1.85546875e-02,-1.07421875e-01,1.14746094e-01,-4.88281250e-02,-1.98242188e-01,1.86157227e-03,-4.60815430e-03,-3.90625000e-02,2.81250000e-01,3.46679688e-02,2.08984375e-01,9.57031250e-02,1.80664062e-01,-1.44531250e-01,-1.19628906e-01,-1.04980469e-01,-1.82617188e-01,-1.19628906e-01,-7.95898438e-02,3.37890625e-01,1.76757812e-01,8.30078125e-02,1.12792969e-01,3.14453125e-01,4.88281250e-02,1.10351562e-01,7.37304688e-02,-1.20117188e-01,-1.08886719e-01,-4.63867188e-03,2.02148438e-01,-3.12500000e-02,6.83593750e-03,-1.13281250e-01,-1.13525391e-02,1.71875000e-01,-2.83203125e-01,8.69140625e-02,-6.12792969e-02,4.24804688e-02,5.78613281e-02,5.61523438e-02,6.29882812e-02,1.82617188e-01,-1.21582031e-01,-1.32812500e-01,-3.35937500e-01,-1.72119141e-02,-8.97216797e-03,-1.22070312e-01,-1.86523438e-01,-3.78417969e-02,-1.14746094e-01,1.98242188e-01,3.55468750e-01,-2.31445312e-01,7.95898438e-02,2.64892578e-02,-1.59179688e-01,2.19726562e-01,-6.05468750e-01,-1.02539062e-01,-2.34375000e-01,2.96875000e-01,6.73828125e-02,-1.77734375e-01,-8.74023438e-02,-4.12597656e-02,-2.09960938e-01,-1.38671875e-01,1.42578125e-01,1.55639648e-02,6.34765625e-02,-6.44531250e-02,-1.87500000e-01,7.95898438e-02,-4.63867188e-02,-3.04687500e-01,5.29785156e-02,1.56250000e-01,7.03125000e-02,-2.77343750e-01,1.12304688e-01,-5.07812500e-01,1.34765625e-01,1.14257812e-01,-3.68652344e-02,-1.59179688e-01,-1.04003906e-01,-5.41992188e-02,-3.97949219e-02,1.79443359e-02,-1.67968750e-01,3.26171875e-01,2.04101562e-01,-7.95898438e-02,8.64257812e-02,-1.48437500e-01,-1.16210938e-01,3.75000000e-01,-2.02148438e-01,-1.39648438e-01,2.56347656e-02,1.49414062e-01,2.40234375e-01,-1.20605469e-01,-2.37304688e-01,-5.02929688e-02,1.62109375e-01,-7.66601562e-02,1.60156250e-01,1.48437500e-01,-8.83789062e-02,-1.74804688e-01,8.88671875e-02,6.39648438e-02,-9.76562500e-02,-1.51367188e-01,5.12695312e-03,1.09863281e-01,-1.48437500e-01,1.30004883e-02,-2.10937500e-01,1.51367188e-01,-1.01074219e-01,-9.03320312e-02,-1.03515625e-01,9.13085938e-02,-2.46093750e-01,-9.37500000e-02,-2.49023438e-02,-5.05371094e-02,-1.19140625e-01,-2.29492188e-01,2.38281250e-01,1.38671875e-01,5.58471680e-03,3.37890625e-01,2.65625000e-01,4.80957031e-02,3.43750000e-01,2.26562500e-01,1.25976562e-01,-1.08886719e-01,4.29687500e-02,-9.61914062e-02,-8.05664062e-02,-1.15722656e-01,2.45361328e-02,2.81250000e-01,-7.71484375e-02,-5.07812500e-02,3.18359375e-01,-8.98437500e-02,9.61914062e-02,-1.16210938e-01,7.37304688e-02,-9.52148438e-02,1.27929688e-01,6.68945312e-02,-4.71191406e-02,-1.86523438e-01,-2.91748047e-02,1.88476562e-01,2.75390625e-01,2.02636719e-02,-2.41210938e-01,-7.93457031e-03,-6.98852539e-03,2.55859375e-01,-1.74804688e-01,-2.25585938e-01,-8.88671875e-02,-2.71484375e-01,1.11328125e-01,-3.02734375e-01,1.34765625e-01,-1.08886719e-01,-1.40991211e-02,-2.26562500e-01,-2.87109375e-01,-1.19628906e-01,1.78222656e-02,4.85839844e-02,9.08203125e-02,1.80664062e-01,3.39843750e-01,-6.25000000e-02,2.61230469e-02,-4.80957031e-02,-1.39648438e-01,1.04492188e-01,2.01171875e-01,-1.51367188e-01,-2.92968750e-01,9.91210938e-02,-1.67968750e-01,2.01171875e-01,-3.82812500e-01,-1.19140625e-01,4.29687500e-02,-3.30078125e-01,1.27929688e-01,7.03125000e-02
confessions
-2.01171875e-01,-1.46484375e-01,2.23632812e-01,8.78906250e-02,2.56347656e-02,2.96875000e-01,-2.39562988e-03,1.56250000e-01,1.33789062e-01,5.27343750e-01,2.39257812e-01,-1.88476562e-01,-3.49609375e-01,6.17187500e-01,-9.66796875e-02,5.22460938e-02,2.83203125e-01,2.41210938e-01,1.01074219e-01,4.71191406e-02,2.65625000e-01,-2.12890625e-01,-1.90734863e-03,-2.74658203e-02,1.59179688e-01,-4.23828125e-01,-2.08984375e-01,1.72851562e-01,-6.78710938e-02,-1.03759766e-02,-2.92968750e-01,6.04248047e-03,-1.16699219e-01,7.51953125e-02,-5.51757812e-02,4.54101562e-02,1.05957031e-01,2.67578125e-01,2.12890625e-01,-1.09252930e-02,7.22656250e-02,1.51367188e-01,-3.10058594e-02,-3.56445312e-02,9.22851562e-02,2.01171875e-01,-6.32812500e-01,2.67578125e-01,-3.55468750e-01,-5.34667969e-02,-3.29589844e-02,2.20703125e-01,-3.49609375e-01,1.37695312e-01,9.32617188e-02,-1.63085938e-01,-3.10546875e-01,-2.61230469e-02,5.56640625e-02,-1.44531250e-01,2.96875000e-01,7.47070312e-02,2.37304688e-01,3.32031250e-01,3.92578125e-01,-6.29882812e-02,2.51953125e-01,1.69921875e-01,8.59375000e-02,-1.31835938e-01,7.76367188e-02,1.44531250e-01,-2.20703125e-01,5.02929688e-02,5.17578125e-02,1.00585938e-01,1.13769531e-01,-4.44335938e-02,5.41992188e-02,-1.81640625e-01,-1.74804688e-01,-4.05273438e-02,2.16796875e-01,1.09375000e-01,1.54296875e-01,-2.83203125e-01,2.67333984e-02,1.18652344e-01,2.57812500e-01,-2.10937500e-01,1.33789062e-01,-2.73437500e-01,-1.98242188e-01,-8.74023438e-02,1.09100342e-03,1.00097656e-01,-9.71679688e-02,-1.74804688e-01,3.26171875e-01,-4.14062500e-01,-2.01171875e-01,1.14746094e-01,1.64062500e-01,1.77734375e-01,2.24609375e-01,1.91650391e-02,1.04980469e-01,1.14746094e-01,1.01318359e-02,7.17773438e-02,-1.21582031e-01,9.47265625e-02,9.08203125e-02,2.97851562e-02,-2.07031250e-01,-4.62890625e-01,-1.42578125e-01,1.34765625e-01,4.16015625e-01,4.64843750e-01,-1.17187500e-01,4.74609375e-01,7.08007812e-02,-1.19140625e-01,3.63281250e-01,-3.32031250e-01,-1.95312500e-01,-2.92968750e-01,9.32617188e-02,2.37304688e-01,-2.92968750e-01,6.98242188e-02,2.59765625e-01,3.22265625e-02,1.74804688e-01,1.69921875e-01,3.73046875e-01,-1.91406250e-01,-8.42285156e-03,2.20947266e-02,-4.98046875e-02,-5.24902344e-02,-1.69677734e-02,1.59179688e-01,-2.87109375e-01,3.73046875e-01,5.29785156e-02,1.14746094e-01,-2.60009766e-02,-1.28906250e-01,4.29687500e-01,9.52148438e-02,-5.83496094e-02,6.13403320e-03,3.75000000e-01,-2.92968750e-01,-3.49609375e-01,-2.38281250e-01,-2.19726562e-02,-1.48315430e-02,4.63867188e-02,-1.85546875e-02,9.27734375e-02,3.10546875e-01,-4.86328125e-01,2.71484375e-01,-1.45507812e-01,-6.17675781e-02,3.44238281e-02,-1.63085938e-01,3.12500000e-01,-8.34960938e-02,-1.25976562e-01,-3.80859375e-01,-9.47265625e-02,-2.98828125e-01,-4.98046875e-02,-1.69921875e-01,-1.66992188e-01,-5.00000000e-01,-4.02832031e-02,2.89062500e-01,-2.26562500e-01,-1.84570312e-01,3.73046875e-01,-6.73828125e-02,-1.71875000e-01,-2.75390625e-01,2.13867188e-01,1.07421875e-01,-4.73632812e-02,7.76367188e-02,2.99072266e-02,-3.24218750e-01,9.03320312e-02,-3.22265625e-01,2.81982422e-02,-2.79296875e-01,-1.47460938e-01,3.20312500e-01,2.33398438e-01,2.03125000e-01,-2.01171875e-01,1.62109375e-01,1.84570312e-01,-1.10351562e-01,3.00781250e-01,-9.42382812e-02,7.03125000e-02,4.76562500e-01,-1.42578125e-01,2.12890625e-01,4.10156250e-01,2.64892578e-02,1.03027344e-01,7.76367188e-02,2.28515625e-01,9.42382812e-02,3.02734375e-02,-3.65234375e-01,-7.99560547e-03,7.71484375e-02,9.27734375e-02,1.22070312e-01,-2.96630859e-02,-1.67968750e-01,2.10937500e-01,2.91015625e-01,9.94873047e-03,-1.32812500e-01,-4.24804688e-02,-2.91015625e-01,-4.36782837e-04,-1.31835938e-01,1.20605469e-01,4.63867188e-02,4.07714844e-02,3.97949219e-02,6.34765625e-02,-6.12792969e-02,3.02734375e-01,-1.31225586e-02,-1.18652344e-01,-1.33789062e-01,1.19018555e-03,1.25976562e-01,-5.41992188e-02,4.66308594e-02,-1.28173828e-02,3.14453125e-01,1.02539062e-01,1.20239258e-02,-1.43554688e-01,1.44531250e-01,-1.11816406e-01,1.38671875e-01,2.03125000e-01,-3.33984375e-01,2.22656250e-01,-3.85742188e-02,-1.43554688e-01,1.09375000e-01,-3.84765625e-01,3.47656250e-01,6.77490234e-03,4.78515625e-01,-2.41210938e-01,-7.61718750e-02,1.21459961e-02,8.17871094e-03,4.02832031e-02,2.50000000e-01,2.29492188e-01,9.22851562e-02,2.44140625e-01,8.34960938e-02,-7.51953125e-02,-1.17675781e-01,3.06640625e-01,-1.74713135e-03,-3.71093750e-02,-3.43750000e-01,1.58203125e-01,-2.10937500e-01,6.64062500e-02,-2.59765625e-01,2.53906250e-01,1.57226562e-01,-2.22656250e-01,1.62109375e-01,2.44140625e-01,9.37500000e-02,9.15527344e-03,-2.55859375e-01,-2.71484375e-01,3.02734375e-02,1.02539062e-01,-5.00000000e-01,-2.01171875e-01,4.68750000e-01
unbelievable1.22558594e-01,9.88769531e-03,-6.44531250e-02,3.11279297e-02,1.20605469e-01,-7.03125000e-02,3.14453125e-01,-1.50390625e-01,9.52148438e-02,2.35351562e-01,-3.22265625e-02,-2.69531250e-01,5.54199219e-02,-3.92578125e-01,-8.25195312e-02,1.44531250e-01,2.55859375e-01,3.04687500e-01,-1.25000000e-01,1.50390625e-01,-8.74023438e-02,1.92382812e-01,1.31835938e-01,-1.87500000e-01,3.37890625e-01,-1.93359375e-01,-2.88391113e-03,3.03955078e-02,1.56250000e-01,-1.09863281e-01,-1.18164062e-01,-1.91650391e-02,4.53125000e-01,1.76757812e-01,1.79687500e-01,-1.04492188e-01,1.79443359e-02,-2.73437500e-02,-4.05273438e-02,4.41406250e-01,3.96484375e-01,-5.59082031e-02,3.08593750e-01,-2.47070312e-01,-1.69921875e-01,-2.37304688e-01,6.73828125e-02,-1.34765625e-01,2.77099609e-02,-1.38671875e-01,1.36718750e-01,2.61718750e-01,-1.53320312e-01,1.18652344e-01,-1.08886719e-01,4.10156250e-02,-2.57812500e-01,-1.91406250e-01,1.94335938e-01,8.05664062e-02,-2.03125000e-01,3.22265625e-01,-7.32421875e-02,-2.00195312e-01,3.35937500e-01,6.64062500e-02,2.89306641e-02,-9.66796875e-02,-1.78710938e-01,1.08398438e-01,-1.70898438e-01,-1.46484375e-01,9.32617188e-02,1.43554688e-01,-2.16796875e-01,-8.54492188e-02,-2.12402344e-02,2.79296875e-01,-2.39257812e-02,-1.04003906e-01,-8.98437500e-02,-3.12500000e-02,-9.13085938e-02,4.34570312e-02,-2.88085938e-02,-3.63281250e-01,-1.13769531e-01,4.12109375e-01,-5.46875000e-02,-1.07421875e-01,7.51953125e-02,2.04101562e-01,-2.53906250e-01,1.63085938e-01,-2.43164062e-01,-4.08172607e-04,-1.14135742e-02,4.06250000e-01,2.80761719e-02,-2.57812500e-01,-1.59179688e-01,3.24218750e-01,-5.54199219e-02,-1.76757812e-01,-1.45507812e-01,4.17968750e-01,1.51367188e-01,-3.10546875e-01,-9.96093750e-02,-7.95898438e-02,1.04492188e-01,5.68847656e-02,-2.59765625e-01,-2.25830078e-02,7.91015625e-02,-1.87500000e-01,-1.01562500e-01,4.39453125e-02,3.80859375e-02,-1.71875000e-01,-2.23632812e-01,-3.19824219e-02,4.21875000e-01,6.44531250e-02,-1.01562500e-01,-1.15722656e-01,-1.45507812e-01,-2.50000000e-01,4.76074219e-02,1.77734375e-01,-1.74804688e-01,-1.34765625e-01,-1.71875000e-01,1.25976562e-01,7.71484375e-02,-1.71875000e-01,-9.21630859e-03,1.86523438e-01,-2.89062500e-01,7.22656250e-02,-1.82617188e-01,1.17187500e-01,9.52148438e-02,1.89453125e-01,-1.10351562e-01,5.51757812e-02,6.98852539e-03,-6.64062500e-02,-2.42187500e-01,-2.53906250e-01,5.46875000e-01,5.42968750e-01,-2.40234375e-01,3.04687500e-01,9.13085938e-02,1.67968750e-01,5.22460938e-02,-1.53320312e-01,-1.81640625e-01,-1.99218750e-01,-2.96630859e-02,2.55126953e-02,2.26562500e-01,1.85394287e-03,3.63281250e-01,-4.14062500e-01,1.36718750e-02,-4.33593750e-01,2.46093750e-01,2.23632812e-01,-2.56347656e-02,1.35742188e-01,-1.00585938e-01,9.81445312e-02,-2.53906250e-01,-1.59912109e-02,-5.52368164e-03,-8.05664062e-02,1.06933594e-01,-1.97265625e-01,-1.09863281e-01,-1.15722656e-01,2.15820312e-01,4.85839844e-02,-7.32421875e-02,-5.10253906e-02,-2.69531250e-01,9.22851562e-02,-9.52148438e-02,4.88281250e-02,1.55029297e-02,1.66015625e-01,2.31445312e-01,-8.49609375e-02,-7.95898438e-02,-9.17968750e-02,1.18652344e-01,-5.98144531e-02,-3.63281250e-01,-3.97949219e-02,3.63769531e-02,8.74023438e-02,1.63574219e-02,-4.90722656e-02,2.08984375e-01,2.85156250e-01,-5.15136719e-02,-4.71191406e-02,-1.36718750e-02,2.00195312e-01,-2.81982422e-02,-7.22656250e-02,-2.60009766e-02,-1.18164062e-01,9.33837891e-03,3.58581543e-03,3.18359375e-01,-3.75976562e-02,-7.42187500e-02,-2.22656250e-01,7.91015625e-02,2.39257812e-01,1.98974609e-02,-1.21582031e-01,1.08886719e-01,1.39648438e-01,1.44531250e-01,5.61523438e-02,-9.37500000e-02,5.98144531e-02,-3.66210938e-02,1.97265625e-01,2.53906250e-01,6.29882812e-02,-2.83203125e-02,-9.81445312e-02,-4.95605469e-02,-7.66601562e-02,1.79687500e-01,2.08984375e-01,4.15039062e-02,1.51367188e-01,6.88476562e-02,-2.71484375e-01,-1.76757812e-01,1.07421875e-01,-7.47070312e-02,-1.43554688e-01,-1.35742188e-01,-2.59765625e-01,1.64062500e-01,1.76757812e-01,1.32812500e-01,3.24218750e-01,2.71484375e-01,-2.18750000e-01,4.90722656e-02,-2.34375000e-01,-9.57031250e-02,-5.03906250e-01,-1.29882812e-01,-2.78320312e-02,1.75781250e-01,2.12402344e-02,5.27343750e-02,1.45507812e-01,3.61328125e-01,-2.10937500e-01,-3.83300781e-02,3.03955078e-02,-2.19726562e-01,1.85546875e-01,1.01074219e-01,4.12597656e-02,-8.83789062e-02,-2.02148438e-01,9.03320312e-02,4.10156250e-02,1.31835938e-01,-1.72851562e-01,-6.83593750e-02,-1.11328125e-01,-2.73437500e-01,-6.44531250e-02,-1.27929688e-01,1.09863281e-01,-2.00195312e-01,-1.64062500e-01,5.73730469e-02,9.09423828e-03,-6.03027344e-02,1.43554688e-01,-3.88671875e-01,6.07910156e-02,-3.18359375e-01,-1.59179688e-01,7.91015625e-02,-1.25976562e-01,-1.73828125e-01,-1.72851562e-01
covert3.93066406e-02,3.71093750e-02,-1.54296875e-01,5.56640625e-02,-3.30078125e-01,3.84521484e-03,-1.40625000e-01,2.24609375e-01,1.68945312e-01,-1.25000000e-01,2.06054688e-01,-3.41796875e-01,-2.55126953e-02,2.53906250e-01,-9.52148438e-02,5.81054688e-02,-9.42382812e-02,-3.71093750e-02,8.83789062e-02,-2.48046875e-01,-1.40625000e-01,-8.34960938e-02,4.78515625e-02,-6.10351562e-02,7.12890625e-02,-1.02996826e-03,-2.80761719e-02,1.23046875e-01,6.54296875e-02,-4.37011719e-02,5.46264648e-03,-6.44531250e-02,-1.25000000e-01,2.44140625e-01,-1.40625000e-01,-1.58203125e-01,4.66308594e-02,-8.34960938e-02,4.51660156e-02,-1.32812500e-01,2.55859375e-01,4.24804688e-02,-1.39648438e-01,1.36718750e-01,5.24902344e-02,2.83203125e-02,4.05273438e-02,-3.32031250e-01,7.51953125e-02,8.05664062e-02,-2.14843750e-01,-1.86523438e-01,1.64062500e-01,5.07812500e-02,-1.15234375e-01,-1.96289062e-01,-4.24804688e-02,-9.76562500e-02,2.50000000e-01,-2.02148438e-01,-3.12500000e-01,2.06054688e-01,-4.15039062e-02,2.17773438e-01,-2.71484375e-01,1.00097656e-02,-6.34765625e-02,3.43750000e-01,1.52343750e-01,-2.14843750e-01,1.15722656e-01,1.47460938e-01,8.20312500e-02,3.14453125e-01,-3.49121094e-02,7.03125000e-02,4.74609375e-01,-5.34057617e-03,-9.22851562e-02,1.75781250e-01,-3.49609375e-01,4.37011719e-02,1.12304688e-01,1.28906250e-01,6.17675781e-02,-4.07714844e-02,-2.99072266e-02,1.73828125e-01,1.62109375e-01,1.09375000e-01,-9.76562500e-02,-4.34570312e-02,-1.04492188e-01,2.61718750e-01,6.03027344e-02,-2.71484375e-01,2.29492188e-01,-1.77734375e-01,-1.72119141e-02,1.67968750e-01,1.20117188e-01,1.17675781e-01,5.39550781e-02,-1.58203125e-01,5.27954102e-03,1.75781250e-02,3.11279297e-03,1.67968750e-01,-1.92871094e-02,-5.37109375e-02,-2.03125000e-01,4.90722656e-02,-3.39843750e-01,3.14453125e-01,4.82177734e-03,4.54101562e-02,2.39257812e-01,3.24218750e-01,2.30468750e-01,6.25000000e-02,-9.81445312e-02,1.02050781e-01,8.20312500e-02,2.48046875e-01,-1.69921875e-01,-3.36914062e-02,2.79296875e-01,7.03125000e-02,4.48608398e-03,-6.37817383e-03,5.79833984e-04,1.89453125e-01,1.77734375e-01,-1.48925781e-02,1.27929688e-01,-4.19921875e-02,7.32421875e-02,-3.63769531e-02,-2.47802734e-02,-4.18090820e-03,-7.22656250e-02,-3.02734375e-01,-1.76757812e-01,1.58203125e-01,-6.39648438e-02,-1.81640625e-01,-2.98828125e-01,2.26562500e-01,-1.37695312e-01,-2.65625000e-01,4.16015625e-01,-1.52343750e-01,-6.29882812e-02,1.92382812e-01,1.47460938e-01,5.17578125e-02,-9.08203125e-02,-2.42187500e-01,1.23046875e-01,-9.70458984e-03,-1.35742188e-01,2.47802734e-02,-8.83789062e-02,5.40161133e-03,-3.61328125e-01,-1.99218750e-01,1.22558594e-01,2.46582031e-02,2.45361328e-02,-6.78710938e-02,2.15820312e-01,9.42382812e-02,1.55029297e-02,-3.78906250e-01,1.60156250e-01,-9.03320312e-03,-1.30859375e-01,-1.62109375e-01,-2.25830078e-02,-1.83593750e-01,-1.80664062e-01,-3.63281250e-01,-1.56250000e-01,-1.81640625e-01,1.12792969e-01,2.07519531e-02,3.61328125e-01,3.54003906e-02,2.47802734e-02,5.98144531e-02,2.50000000e-01,3.16406250e-01,2.71484375e-01,-1.05957031e-01,-1.14746094e-01,-1.47705078e-02,-1.18652344e-01,-1.67968750e-01,1.00097656e-01,1.49414062e-01,2.02148438e-01,2.68554688e-02,1.81640625e-01,4.62890625e-01,3.30078125e-01,9.52148438e-02,-3.10546875e-01,3.56445312e-02,-1.38671875e-01,-1.90429688e-01,4.24804688e-02,-1.14746094e-01,-8.74023438e-02,-3.10546875e-01,-2.63671875e-02,-4.34570312e-02,2.98828125e-01,5.32226562e-02,-4.96093750e-01,-1.39648438e-01,7.08007812e-02,-1.00097656e-02,5.98144531e-02,1.31835938e-01,-2.06054688e-01,1.22558594e-01,-2.56347656e-02,1.71875000e-01,2.89062500e-01,-2.24609375e-01,2.20703125e-01,-6.93359375e-02,1.60156250e-01,3.04687500e-01,1.83593750e-01,-3.41796875e-01,1.05957031e-01,-5.37109375e-03,2.08984375e-01,-1.91406250e-01,-6.22558594e-02,-9.27734375e-02,-1.66015625e-02,7.86132812e-02,1.17675781e-01,1.80664062e-02,-1.13769531e-01,-1.23046875e-01,-7.27539062e-02,5.41992188e-02,-5.15136719e-02,-1.03515625e-01,2.89062500e-01,-1.02050781e-01,2.40234375e-01,1.06933594e-01,1.59179688e-01,-3.51562500e-01,-3.20312500e-01,-9.57031250e-02,1.57470703e-02,9.37500000e-02,1.87988281e-02,3.21960449e-03,-1.17675781e-01,-5.98144531e-02,-6.56250000e-01,-2.33398438e-01,-3.18359375e-01,-2.19726562e-01,-1.45507812e-01,1.29882812e-01,-1.68457031e-02,3.20312500e-01,2.14843750e-01,-1.38671875e-01,2.31445312e-01,2.60009766e-02,-5.98144531e-02,8.34960938e-02,-1.61132812e-01,1.58203125e-01,1.97265625e-01,-2.30468750e-01,-3.36914062e-02,-1.55273438e-01,-1.22558594e-01,5.05371094e-02,2.21679688e-01,-2.47070312e-01,-2.13623047e-02,1.59179688e-01,-4.51660156e-02,2.02148438e-01,-2.23632812e-01,-2.85156250e-01,8.34960938e-02,-1.20117188e-01,7.42187500e-02,1.75781250e-01
hidden1.40625000e-01,1.43554688e-01,-4.61425781e-02,1.25976562e-01,-1.47460938e-01,7.12890625e-02,5.34667969e-02,2.19726562e-01,2.94921875e-01,2.35351562e-01,1.28906250e-01,-1.69921875e-01,-7.22656250e-02,-1.56250000e-02,-2.50000000e-01,8.97216797e-03,2.55859375e-01,1.66015625e-01,-2.47070312e-01,1.78710938e-01,1.84570312e-01,-4.95910645e-04,-1.49414062e-01,5.05371094e-02,-1.12304688e-01,-2.12890625e-01,7.03125000e-02,1.24511719e-01,8.93554688e-02,-4.64843750e-01,-2.83203125e-01,-6.20117188e-02,-2.85644531e-02,-1.66015625e-02,-1.24023438e-01,-3.69140625e-01,5.31005859e-03,-1.86523438e-01,-1.32812500e-01,-3.06396484e-02,-4.93164062e-02,3.18359375e-01,-7.32421875e-03,-1.45507812e-01,-6.29882812e-02,-1.75781250e-01,-4.56542969e-02,-1.68945312e-01,8.34960938e-02,-1.90429688e-01,-2.45117188e-01,-8.44726562e-02,2.28515625e-01,-1.90429688e-01,-1.28906250e-01,-2.22656250e-01,-2.00195312e-02,-2.53906250e-01,1.88476562e-01,9.91210938e-02,-1.04492188e-01,1.43554688e-01,-1.28173828e-02,8.88671875e-02,-3.49426270e-03,-7.17163086e-03,3.22265625e-02,1.90429688e-01,-2.62451172e-02,2.20947266e-02,4.14062500e-01,2.13867188e-01,1.15722656e-01,1.92871094e-02,-1.49414062e-01,1.82617188e-01,2.92968750e-01,1.98242188e-01,-2.45117188e-01,8.93554688e-02,-1.01074219e-01,-2.73437500e-01,-1.94091797e-02,-7.17773438e-02,-6.34765625e-02,-2.40234375e-01,1.41601562e-01,1.14257812e-01,-3.04687500e-01,2.89062500e-01,1.38549805e-02,-6.49414062e-02,-1.87988281e-02,1.76757812e-01,4.51660156e-02,-7.32421875e-02,1.68945312e-01,-3.34472656e-02,1.08886719e-01,-1.20544434e-03,-4.21875000e-01,7.61718750e-02,1.86523438e-01,-2.05078125e-01,8.64257812e-02,5.39550781e-02,-5.20019531e-02,1.03759766e-02,7.37304688e-02,-2.89062500e-01,-5.95703125e-02,-8.72802734e-03,-1.42578125e-01,-5.20019531e-02,-1.98974609e-02,2.38281250e-01,1.18164062e-01,-1.61132812e-01,1.33789062e-01,3.06640625e-01,5.98144531e-02,-3.32031250e-02,1.35742188e-01,-9.52148438e-03,-7.81250000e-02,-5.59082031e-02,1.51367188e-01,4.66308594e-02,-1.19628906e-01,8.85009766e-03,-1.38671875e-01,1.26953125e-02,2.20947266e-02,4.80957031e-02,-1.30615234e-02,-1.03027344e-01,1.48437500e-01,-1.43554688e-01,9.61914062e-02,1.04003906e-01,-7.56835938e-02,-3.02734375e-01,-1.58203125e-01,1.26953125e-01,8.00781250e-02,-1.21093750e-01,-2.34375000e-01,-1.17187500e-02,-2.34375000e-01,1.61743164e-03,7.81250000e-02,-6.44531250e-02,-8.78906250e-02,-8.00781250e-02,-2.88085938e-02,1.50390625e-01,-4.39453125e-01,-1.45507812e-01,-8.83789062e-02,2.32421875e-01,-6.03027344e-02,9.37500000e-02,-5.22460938e-02,-1.05468750e-01,-1.64062500e-01,-7.86132812e-02,1.32812500e-01,-1.29882812e-01,-1.58691406e-02,-1.12915039e-02,-2.67578125e-01,2.71484375e-01,-2.63671875e-01,-1.05957031e-01,3.02734375e-02,1.47460938e-01,-1.78710938e-01,-2.96875000e-01,1.55273438e-01,-3.12500000e-01,-3.81469727e-03,2.53906250e-02,6.25000000e-02,-2.09960938e-01,-1.91406250e-01,-9.68933105e-04,-1.83105469e-02,8.54492188e-03,9.13085938e-02,1.44531250e-01,4.90722656e-02,3.88183594e-02,1.26953125e-01,-1.07910156e-01,-3.39843750e-01,4.47265625e-01,-2.98828125e-01,-1.66992188e-01,-1.65039062e-01,1.60156250e-01,2.61718750e-01,-7.56835938e-02,-2.91015625e-01,-2.07031250e-01,3.95507812e-02,-1.42822266e-02,1.35742188e-01,2.25830078e-03,4.33349609e-03,-3.34472656e-02,1.16577148e-02,1.53198242e-02,-6.59179688e-02,-1.10351562e-01,-2.67333984e-02,1.33789062e-01,6.68945312e-02,-2.14843750e-02,-1.48437500e-01,6.78710938e-02,-1.51367188e-01,-1.51367188e-01,-4.22363281e-02,-1.82617188e-01,-4.21875000e-01,-9.81445312e-02,-5.02929688e-02,-7.87353516e-03,-1.37695312e-01,-8.10546875e-02,2.55859375e-01,-9.21630859e-03,8.60595703e-03,2.85156250e-01,1.75781250e-01,-1.11694336e-02,3.67187500e-01,-9.47265625e-02,1.87500000e-01,-1.32812500e-01,2.17285156e-02,-1.25976562e-01,-3.06396484e-02,-1.21093750e-01,6.12792969e-02,7.51953125e-02,-1.18652344e-01,-3.12500000e-02,2.92968750e-01,7.27539062e-02,1.13769531e-01,1.89781189e-04,1.26953125e-01,-1.34887695e-02,1.62109375e-01,1.09252930e-02,-1.28906250e-01,-5.07812500e-01,3.75976562e-02,1.01562500e-01,4.71191406e-02,-9.91210938e-02,-1.25000000e-01,5.98144531e-02,-1.98242188e-01,-4.15039062e-02,-2.15820312e-01,-2.13623047e-02,-8.64257812e-02,-5.61523438e-02,8.88671875e-02,-2.09960938e-01,1.20605469e-01,-1.27929688e-01,-9.32617188e-02,6.83593750e-02,5.95092773e-03,-1.75781250e-01,-1.10351562e-01,1.12304688e-01,1.05468750e-01,8.05664062e-02,1.67968750e-01,-1.44653320e-02,-8.49609375e-02,-6.54296875e-02,-1.97265625e-01,3.58886719e-02,3.36914062e-02,-1.98242188e-01,-2.25585938e-01,6.98242188e-02,-1.50390625e-01,1.79687500e-01,-4.64843750e-01,-2.06054688e-01,2.85644531e-02,-1.24023438e-01,1.66015625e-01,3.90625000e-02
scoop
-1.75781250e-01,-4.24194336e-03,-1.03515625e-01,5.24902344e-02,3.06396484e-02,-5.27343750e-02,7.32421875e-02,-4.93164062e-02,-1.13769531e-01,-5.63964844e-02,-3.20312500e-01,-1.55273438e-01,2.26562500e-01,2.40234375e-01,-3.18359375e-01,1.98242188e-01,-1.02539062e-01,-5.27343750e-02,1.57226562e-01,-8.10546875e-02,4.41406250e-01,8.59375000e-02,1.20605469e-01,8.93554688e-02,3.12500000e-01,1.62109375e-01,4.66918945e-03,3.65234375e-01,8.98437500e-02,-2.71484375e-01,6.93359375e-02,6.54296875e-02,1.77734375e-01,-5.32226562e-02,-4.80957031e-02,-6.07910156e-02,1.94335938e-01,-7.51953125e-02,-1.55029297e-02,3.12500000e-01,-6.98242188e-02,-3.69140625e-01,-1.15234375e-01,6.88476562e-02,2.53906250e-02,1.12792969e-01,-4.88281250e-02,6.78710938e-02,4.31640625e-01,2.01171875e-01,-5.95703125e-02,5.10253906e-02,9.52148438e-02,6.39648438e-02,-2.73437500e-01,-6.49414062e-02,3.88671875e-01,-4.73632812e-02,6.68334961e-03,-1.77734375e-01,5.93261719e-02,-2.31445312e-01,2.46582031e-02,-1.61132812e-02,6.25000000e-02,-7.62939453e-03,2.11181641e-02,-2.28515625e-01,2.21679688e-01,2.01171875e-01,9.96093750e-02,-9.71679688e-02,-1.03149414e-02,-1.39648438e-01,-6.03027344e-02,-1.41601562e-02,-2.13623047e-02,2.02148438e-01,-1.90429688e-01,-1.44531250e-01,-7.32421875e-02,1.37695312e-01,1.97265625e-01,3.99780273e-03,9.17968750e-02,-1.14746094e-01,2.45117188e-01,1.66015625e-01,-3.71093750e-02,1.14746094e-01,4.12109375e-01,4.21875000e-01,-1.26953125e-01,2.85156250e-01,-1.06445312e-01,-1.02539062e-02,-9.91210938e-02,6.98242188e-02,2.85156250e-01,-7.32421875e-02,6.83593750e-02,1.30859375e-01,2.46093750e-01,-1.18652344e-01,-9.61914062e-02,-2.83203125e-01,-1.87988281e-02,-1.41601562e-01,4.98046875e-02,-1.69921875e-01,3.20312500e-01,-1.42578125e-01,4.56542969e-02,9.76562500e-02,7.03125000e-02,4.98046875e-02,1.67968750e-01,2.08984375e-01,-1.59912109e-02,-1.57226562e-01,-6.49414062e-02,-5.22136688e-05,-1.43554688e-01,1.25000000e-01,2.81250000e-01,3.14453125e-01,8.59375000e-02,1.19628906e-02,7.91015625e-02,-1.43554688e-01,-4.98046875e-02,-8.69140625e-02,-4.15039062e-02,1.90429688e-01,1.26953125e-01,-3.70025635e-04,1.16699219e-01,-3.14941406e-02,1.57226562e-01,6.98242188e-02,1.12792969e-01,-1.72851562e-01,-2.27539062e-01,-7.91015625e-02,2.38281250e-01,-2.17285156e-02,-8.39843750e-02,-1.95312500e-01,2.00195312e-01,-6.98242188e-02,7.66601562e-02,-2.34375000e-01,-2.71484375e-01,1.73828125e-01,5.34667969e-02,8.64257812e-02,-9.09423828e-03,-2.71484375e-01,-2.41210938e-01,1.01562500e-01,-1.26953125e-01,-1.98974609e-02,-1.75781250e-01,-1.77734375e-01,-4.97436523e-03,-1.86523438e-01,3.22265625e-01,-3.33984375e-01,-2.17773438e-01,-7.05718994e-04,-2.91015625e-01,1.23046875e-01,1.56250000e-01,-1.74804688e-01,-2.53906250e-01,4.30297852e-03,-3.93676758e-03,-1.58203125e-01,-6.25000000e-02,1.49414062e-01,-1.00585938e-01,7.32421875e-02,3.24218750e-01,-2.81250000e-01,-3.78417969e-02,-2.33398438e-01,1.69677734e-02,2.24609375e-01,3.32031250e-02,1.20117188e-01,1.19140625e-01,-1.08398438e-01,3.55468750e-01,-8.15429688e-02,-1.61132812e-01,2.92968750e-01,1.06445312e-01,-1.25976562e-01,8.69140625e-02,-2.80761719e-02,-1.14746094e-01,1.06933594e-01,-3.55468750e-01,3.90625000e-02,6.86645508e-03,-3.95507812e-02,-1.66015625e-01,1.83105469e-02,-7.12890625e-02,7.86132812e-02,3.10546875e-01,3.20312500e-01,-1.40625000e-01,3.04687500e-01,3.73535156e-02,1.97753906e-02,4.32128906e-02,-2.94189453e-02,1.00585938e-01,-1.53320312e-01,-1.18164062e-01,3.68652344e-02,-6.64062500e-02,-3.49121094e-02,1.40625000e-01,3.33984375e-01,-8.25195312e-02,2.01171875e-01,8.93554688e-02,-3.80859375e-01,1.94335938e-01,-3.39355469e-02,6.39648438e-02,-4.66308594e-02,3.28125000e-01,-2.67578125e-01,7.61718750e-02,-1.02050781e-01,3.67736816e-03,2.65625000e-01,1.62109375e-01,4.21142578e-03,-2.30712891e-02,-1.25000000e-01,2.55859375e-01,7.47070312e-02,1.17187500e-01,1.79687500e-01,-1.59912109e-02,-1.49414062e-01,4.15039062e-02,-7.12890625e-02,1.67968750e-01,1.97265625e-01,3.18359375e-01,2.53906250e-02,-1.05957031e-01,-1.88476562e-01,-3.43750000e-01,6.01196289e-03,-1.04492188e-01,3.10546875e-01,-4.92187500e-01,6.83593750e-02,7.12890625e-02,7.97271729e-04,-1.94335938e-01,2.10937500e-01,5.82885742e-03,-2.59765625e-01,7.03125000e-02,2.90527344e-02,2.48046875e-01,6.34765625e-02,1.10351562e-01,6.03027344e-02,7.66601562e-02,3.61328125e-02,6.39648438e-02,1.56250000e-01,6.07910156e-02,1.33789062e-01,-1.32446289e-02,1.34765625e-01,2.20947266e-02,-1.51367188e-01,-1.78710938e-01,1.65039062e-01,-2.81250000e-01,2.67578125e-01,3.61328125e-02,-2.28515625e-01,-1.26953125e-01,-5.61523438e-02,5.76171875e-02,-4.06250000e-01,-1.14257812e-01,-2.49023438e-01,1.10473633e-02,-6.34765625e-02
magical3.45703125e-01,1.91650391e-02,-1.80664062e-02,-7.81250000e-02,5.98144531e-03,-2.50244141e-02,9.17968750e-02,-1.67968750e-01,-3.63769531e-02,5.17578125e-02,-7.22656250e-02,-4.34570312e-02,-5.66406250e-02,-9.32617188e-02,-2.05078125e-01,2.29492188e-01,2.89062500e-01,1.08398438e-01,2.61718750e-01,6.07910156e-02,-2.49023438e-01,1.68945312e-01,4.05273438e-02,2.84423828e-02,7.12890625e-02,4.19921875e-02,2.16064453e-02,1.25976562e-01,2.42919922e-02,-1.39648438e-01,-1.81640625e-01,-8.36181641e-03,3.29589844e-02,2.57812500e-01,-6.73828125e-02,-1.62109375e-01,-1.00585938e-01,-3.22265625e-01,5.76171875e-02,2.16796875e-01,2.02148438e-01,2.11181641e-02,3.47656250e-01,-1.49414062e-01,1.48437500e-01,-1.65039062e-01,2.22656250e-01,1.00585938e-01,6.39648438e-02,-1.73339844e-02,-2.96875000e-01,5.03906250e-01,5.27343750e-02,1.52343750e-01,4.24194336e-03,-2.13623047e-02,4.71191406e-02,-3.80859375e-01,-1.24023438e-01,-1.77734375e-01,3.70025635e-04,3.57421875e-01,2.96875000e-01,-1.50390625e-01,1.04980469e-01,4.69970703e-03,-3.80859375e-02,3.68652344e-02,-3.29589844e-02,1.18652344e-01,1.03515625e-01,-1.71875000e-01,-9.61914062e-02,6.46972656e-03,1.34765625e-01,-3.63769531e-02,3.78417969e-02,2.73437500e-02,-7.17773438e-02,-5.20019531e-02,1.16699219e-01,-1.45507812e-01,-9.03320312e-02,-5.83496094e-02,-1.16699219e-01,-6.98242188e-02,-1.28906250e-01,-1.35742188e-01,-5.12695312e-02,2.40234375e-01,-7.27539062e-02,2.00195312e-01,-4.14062500e-01,-2.81250000e-01,-1.29882812e-01,-1.43432617e-02,8.05664062e-02,-7.12890625e-02,-8.05664062e-02,-6.29882812e-02,3.14941406e-02,2.51953125e-01,1.24511719e-01,-1.85546875e-01,-1.91406250e-01,6.44531250e-02,1.02050781e-01,-3.75976562e-02,-5.05371094e-02,-3.41796875e-01,1.39648438e-01,3.41796875e-01,-6.19506836e-03,9.42382812e-02,1.93359375e-01,-6.83593750e-02,-1.45507812e-01,-9.61914062e-02,9.09423828e-03,-2.89062500e-01,1.69921875e-01,-7.56835938e-02,2.91015625e-01,-1.56250000e-01,-2.24609375e-01,-4.85839844e-02,1.26953125e-01,1.00585938e-01,-1.38671875e-01,1.77734375e-01,-2.94921875e-01,1.59179688e-01,-1.67968750e-01,7.44628906e-03,1.25000000e-01,4.29687500e-02,-1.80664062e-02,-1.09375000e-01,-2.94921875e-01,2.85156250e-01,3.88183594e-02,-2.47070312e-01,-1.73828125e-01,9.17968750e-02,2.67578125e-01,1.96289062e-01,-1.36108398e-02,1.66015625e-01,-2.96875000e-01,-1.85546875e-01,1.27929688e-01,6.03027344e-02,-2.03125000e-01,3.41796875e-01,-1.46484375e-01,-3.78417969e-02,1.43554688e-01,-8.78906250e-02,-1.96289062e-01,-1.23535156e-01,-2.41210938e-01,2.13623047e-02,4.73632812e-02,-6.68945312e-02,1.37695312e-01,-1.02050781e-01,1.26953125e-01,-1.13281250e-01,-2.77343750e-01,6.75201416e-04,3.32031250e-02,1.84570312e-01,-1.80664062e-01,-1.50390625e-01,-4.24804688e-02,9.61914062e-02,-5.22460938e-02,8.30078125e-03,-1.35742188e-01,-1.99218750e-01,-2.04101562e-01,7.56835938e-02,7.76367188e-02,-1.81640625e-01,-2.41210938e-01,-1.48437500e-01,-1.13281250e-01,3.97949219e-02,1.66015625e-01,9.08203125e-02,-1.90429688e-01,2.92968750e-03,2.15820312e-01,-2.67333984e-02,9.17968750e-02,3.88183594e-02,-1.72851562e-01,-2.19726562e-01,-2.32421875e-01,-2.39257812e-01,3.32031250e-01,2.28271484e-02,1.97753906e-02,-1.50390625e-01,-9.33837891e-03,-4.49218750e-02,8.34960938e-02,-3.73535156e-02,-7.27539062e-02,4.36401367e-03,-1.75781250e-01,-7.76367188e-02,-9.37500000e-02,-2.96875000e-01,-9.52148438e-03,-1.89208984e-02,3.96484375e-01,5.46875000e-02,-4.37011719e-02,-1.14135742e-02,-3.41796875e-02,3.73046875e-01,1.09375000e-01,-5.56640625e-02,3.24707031e-02,3.37890625e-01,-2.40234375e-01,3.49121094e-02,-1.45507812e-01,2.59765625e-01,4.61425781e-02,1.02539062e-01,-9.17968750e-02,2.55859375e-01,9.81445312e-02,1.54296875e-01,-1.60156250e-01,-8.30078125e-02,2.11914062e-01,1.45507812e-01,1.16699219e-01,-1.89453125e-01,7.12890625e-02,-2.09960938e-01,-5.20019531e-02,1.55273438e-01,3.97949219e-02,-1.24023438e-01,1.25000000e-01,-2.69531250e-01,-1.36718750e-01,6.78710938e-02,4.10156250e-01,3.94531250e-01,3.32031250e-02,-5.39062500e-01,-1.46484375e-01,-3.28125000e-01,-1.23535156e-01,-1.67968750e-01,-5.81054688e-02,-6.59179688e-02,-1.32812500e-01,8.64257812e-02,-1.64062500e-01,4.68750000e-02,1.60156250e-01,-9.03320312e-02,-1.43554688e-01,-4.51660156e-02,1.95312500e-01,2.49023438e-01,2.61230469e-02,2.34375000e-02,1.22558594e-01,-2.08984375e-01,7.47070312e-02,-6.44531250e-02,5.76171875e-02,3.49121094e-02,6.34765625e-02,4.51660156e-02,-7.51953125e-02,-1.11694336e-02,2.61718750e-01,1.02539062e-02,-2.51953125e-01,-7.42187500e-02,-5.73730469e-02,-1.27929688e-01,4.54101562e-02,7.17773438e-02,1.30615234e-02,-9.03320312e-02,-1.25976562e-01,-7.91015625e-02,-1.47094727e-02,-1.16210938e-01,5.02929688e-02,-2.75878906e-02
instantly2.42187500e-01,-2.89062500e-01,7.56835938e-02,1.05468750e-01,-1.46484375e-01,4.41894531e-02,4.93164062e-02,-1.64062500e-01,4.27246094e-02,1.16699219e-01,-7.12890625e-02,-1.95312500e-01,-1.02050781e-01,3.12805176e-03,-7.42187500e-02,-7.71484375e-02,4.52041626e-04,2.57812500e-01,2.36328125e-01,-5.12695312e-02,-3.24707031e-02,-1.66992188e-01,-2.07031250e-01,7.51953125e-02,-6.14166260e-04,-1.81640625e-01,5.27343750e-02,2.92968750e-01,2.09960938e-01,-1.28906250e-01,-2.20703125e-01,1.52587891e-02,-1.34765625e-01,2.01416016e-02,1.66992188e-01,-1.13769531e-01,2.50000000e-01,-1.48315430e-02,-4.05273438e-02,-8.97216797e-03,-4.27246094e-02,-1.83593750e-01,3.88671875e-01,-1.08398438e-01,2.27539062e-01,-1.74804688e-01,1.70898438e-01,-1.04370117e-02,2.18750000e-01,1.50390625e-01,-1.10839844e-01,-8.05664062e-02,-1.02539062e-01,-6.52313232e-04,-9.03320312e-03,1.71875000e-01,-3.14331055e-03,8.30078125e-03,-2.22167969e-02,1.74804688e-01,-1.94549561e-03,-1.05957031e-01,-8.15429688e-02,-2.08740234e-02,-5.20019531e-02,8.64257812e-02,3.88183594e-02,-1.59179688e-01,-2.80761719e-02,7.81250000e-02,-8.69140625e-02,6.83593750e-02,3.34472656e-02,-1.78710938e-01,-7.03125000e-02,1.23901367e-02,1.05957031e-01,2.81250000e-01,1.48437500e-01,2.01416016e-02,1.14746094e-01,2.22656250e-01,1.56250000e-01,1.28173828e-03,1.30859375e-01,-1.87500000e-01,-2.13867188e-01,-9.32617188e-02,-1.70898438e-01,-1.01562500e-01,-1.03027344e-01,1.73828125e-01,-1.90429688e-01,-1.11328125e-01,-1.74804688e-01,9.08203125e-02,-4.58984375e-02,1.79687500e-01,8.30078125e-02,-8.74023438e-02,-1.05468750e-01,-6.39648438e-02,4.41894531e-02,8.66699219e-03,-3.08593750e-01,1.43554688e-01,-1.00585938e-01,4.76074219e-02,8.59375000e-02,-5.39550781e-02,-1.87500000e-01,2.30712891e-02,6.00585938e-02,-3.26171875e-01,5.03906250e-01,4.24804688e-02,-2.42187500e-01,1.39770508e-02,-1.37695312e-01,8.10546875e-02,-1.57226562e-01,-1.55273438e-01,-9.22851562e-02,5.51757812e-02,-3.39355469e-02,-4.02832031e-02,-4.32128906e-02,-1.87500000e-01,6.68945312e-02,2.37304688e-01,1.19628906e-02,1.43554688e-01,-1.79687500e-01,4.37011719e-02,1.44531250e-01,-2.26562500e-01,4.30297852e-03,-2.23632812e-01,-1.07910156e-01,1.57226562e-01,-4.05273438e-02,-3.26171875e-01,-3.71093750e-02,4.68750000e-02,1.45507812e-01,3.41796875e-02,1.14746094e-01,7.95898438e-02,-2.02148438e-01,6.20117188e-02,2.40478516e-02,2.57812500e-01,-1.55273438e-01,-6.98242188e-02,7.12890625e-02,-1.85546875e-01,-2.81250000e-01,7.91015625e-02,-1.14257812e-01,-1.56250000e-01,-1.09863281e-01,5.10253906e-02,-6.64062500e-02,1.45507812e-01,-3.71093750e-01,-2.06054688e-01,-1.00097656e-01,3.63769531e-02,5.37109375e-03,-1.47460938e-01,3.60107422e-03,3.56445312e-02,-1.16699219e-01,-3.90625000e-02,-3.73046875e-01,5.39550781e-02,-1.14257812e-01,-2.26562500e-01,-2.85156250e-01,-8.10546875e-02,1.81884766e-02,-2.17773438e-01,-1.94091797e-02,-5.66406250e-02,7.17773438e-02,6.54296875e-02,-1.41601562e-01,9.94873047e-03,-1.17675781e-01,-5.73730469e-03,-1.32446289e-02,-1.54296875e-01,-4.76074219e-02,1.25976562e-01,7.03125000e-02,-6.29882812e-02,-2.58789062e-02,1.25976562e-01,-8.30078125e-02,-1.65039062e-01,7.95898438e-02,6.74438477e-03,1.08398438e-01,1.46484375e-01,2.47070312e-01,-7.56835938e-02,-3.73535156e-02,2.88085938e-02,1.14257812e-01,-1.01074219e-01,-2.19726562e-01,-4.71191406e-02,3.11279297e-03,1.07910156e-01,-2.83203125e-01,-1.08886719e-01,3.84521484e-03,5.71289062e-02,-2.96875000e-01,7.47070312e-02,-1.17675781e-01,3.14453125e-01,-1.28906250e-01,-1.05957031e-01,-6.10351562e-02,2.33398438e-01,-1.27929688e-01,-1.44531250e-01,1.49414062e-01,-4.57031250e-01,2.15820312e-01,8.93554688e-02,2.72216797e-02,-1.64062500e-01,-3.83300781e-02,-1.83593750e-01,4.29687500e-02,3.90625000e-02,-1.12304688e-01,3.24218750e-01,-8.74023438e-02,-2.37304688e-01,-1.70898438e-01,-9.37500000e-02,-2.58789062e-02,9.52148438e-02,4.19921875e-02,2.13867188e-01,1.18652344e-01,-5.59082031e-02,-7.71484375e-02,-2.24609375e-02,1.28906250e-01,7.17773438e-02,9.66796875e-02,-1.68945312e-01,-1.33789062e-01,2.28515625e-01,1.09375000e-01,-4.84375000e-01,-6.68945312e-02,-2.29492188e-01,-3.22265625e-01,9.17968750e-02,-6.64062500e-02,8.39843750e-02,1.19140625e-01,3.17382812e-02,2.75878906e-02,-2.03857422e-02,1.26953125e-01,2.03125000e-01,-2.65625000e-01,1.36718750e-01,-1.12792969e-01,-2.67333984e-02,-1.17675781e-01,1.44042969e-02,1.68945312e-01,5.07812500e-02,-8.59375000e-02,5.44433594e-02,-1.60156250e-01,9.86328125e-02,1.17187500e-02,5.98144531e-02,-2.25585938e-01,-1.83593750e-01,2.81250000e-01,1.20117188e-01,-2.99072266e-02,1.31835938e-01,-1.77001953e-02,-1.62109375e-01,-6.59179688e-03,-7.12890625e-02,3.80859375e-02,-6.17675781e-02,1.67236328e-02,-3.75976562e-02
missing0.29492188,-0.01306152,-0.08398438,-0.13867188,-0.08984375,0.05664062,-0.00576782,-0.35742188,0.06347656,0.3125,0.20507812,-0.13769531,-0.07958984,0.22460938,0.04882812,0.03955078,0.33984375,-0.10351562,-0.15136719,0.00567627,-0.03027344,-0.12255859,-0.12890625,-0.00185394,-0.22363281,-0.06152344,-0.11328125,-0.08056641,0.59375,-0.13574219,0.06933594,0.08935547,0.11083984,-0.1484375,0.01000977,-0.28320312,-0.03125,0.09033203,0.05297852,0.16894531,-0.01269531,0.03173828,0.02844238,-0.0703125,0.05859375,-0.17089844,-0.10205078,-0.02160645,0.0625,0.00982666,-0.16992188,-0.06982422,-0.15332031,0.04150391,-0.20507812,-0.18164062,0.0456543,-0.13378906,0.20117188,0.109375,0.140625,0.515625,0.02331543,-0.45507812,-0.125,-0.0291748,0.20996094,-0.2265625,-0.06152344,-0.08203125,-0.10107422,-0.04931641,-0.08642578,0.10839844,-0.09472656,0.24121094,0.10791016,-0.1875,0.1484375,0.11474609,0.18066406,-0.21386719,0.31054688,-0.02648926,-0.00469971,-0.16601562,0.17285156,-0.22558594,-0.09667969,0.05297852,-0.13085938,-0.08105469,0.23046875,-0.16503906,-0.05078125,-0.10742188,0.3984375,0.24707031,-0.28125,0.28710938,-0.33203125,-0.02697754,0.13574219,0.04223633,0.18164062,-0.06054688,-0.10058594,-0.12695312,0.09863281,-0.05834961,0.13574219,0.15527344,-0.23632812,0.04248047,-0.0859375,0.04248047,0.203125,0.1796875,-0.05883789,0.15429688,-0.08251953,0.05761719,0.17382812,0.24414062,-0.00994873,-0.17089844,0.06933594,-0.23242188,-0.26953125,0.20117188,-0.03295898,-0.01397705,-0.30859375,0.10400391,-0.40429688,-0.16796875,0.01373291,0.16210938,-0.13378906,0.30273438,0.18847656,0.07177734,0.09912109,0.18457031,0.03564453,0.04272461,-0.34179688,-0.11376953,-0.24121094,-0.03320312,0.06689453,-0.10351562,-0.31835938,0.24707031,0.10791016,0.10498047,0.01147461,-0.12597656,0.10986328,0.0546875,-0.07080078,0.15527344,0.08398438,0.10644531,0.00750732,0.01153564,0.20898438,-0.05371094,-0.11523438,-0.13476562,-0.25976562,0.22363281,-0.53515625,-0.08056641,0.24804688,0.05761719,0.21972656,-0.09863281,-0.24511719,-0.01074219,0.20410156,0.02539062,-0.00775146,0.13574219,-0.01831055,-0.11523438,-0.13867188,-0.07519531,0.17871094,-0.03759766,-0.10107422,-0.03662109,-0.06591797,-0.13085938,0.02062988,0.16113281,0.09912109,-0.16894531,-0.05664062,0.14355469,-0.08789062,-0.08300781,-0.3203125,-0.05859375,0.03564453,-0.13964844,-0.13769531,0.05200195,0.06640625,-0.20996094,-0.04541016,0.12011719,0.06445312,0.09130859,-0.14355469,0.1171875,-0.02929688,-0.09667969,-0.6484375,-0.140625,-0.25195312,0.05810547,-0.09179688,0.11621094,-0.16699219,-0.26757812,-0.09765625,0.07519531,-0.26953125,-0.00939941,0.25195312,0.03466797,0.01708984,0.21289062,-0.09228516,0.10449219,0.27148438,-0.3671875,0.00196838,0.05419922,0.05786133,0.13769531,0.01916504,-0.0402832,0.13867188,0.24804688,-0.07958984,-0.01025391,0.05224609,0.00836182,0.12207031,-0.01782227,0.35351562,-0.10839844,-0.00098419,-0.18652344,0.31835938,-0.03979492,-0.14355469,-0.17578125,0.18261719,-0.07373047,0.04223633,0.06079102,-0.01086426,-0.03491211,-0.09716797,-0.10107422,0.00753784,-0.02294922,-0.03442383,0.01049805,-0.02807617,-0.13183594,0.1484375,0.02050781,-0.01904297,-0.08935547,0.02282715,-0.07373047,-0.15234375,-0.29492188,-0.16015625,0.27734375,0.05664062,-0.03759766,-0.19335938,0.203125,-0.0534668,0.02697754,0.234375,-0.22265625,-0.09716797,0.17089844,0.24316406,-0.01855469,-0.13769531,-0.06884766,0.22949219,-0.22070312
magnificent4.58984375e-02,1.87500000e-01,-7.56835938e-03,-9.53674316e-06,2.57812500e-01,-1.73828125e-01,2.08007812e-01,-1.80664062e-01,-1.44653320e-02,3.12500000e-01,-1.54296875e-01,-1.79687500e-01,3.83300781e-02,-5.34667969e-02,1.67968750e-01,8.69140625e-02,1.82617188e-01,3.34472656e-02,-1.53808594e-02,1.50390625e-01,-1.09863281e-01,6.39648438e-02,9.71679688e-02,7.17163086e-03,2.05078125e-01,1.00585938e-01,-2.20947266e-02,8.98437500e-02,1.17675781e-01,-1.78710938e-01,-4.68750000e-02,6.34765625e-02,1.60156250e-01,2.75390625e-01,2.09960938e-01,-6.25000000e-02,-9.66796875e-02,-1.24511719e-02,-4.34570312e-02,6.73828125e-02,1.80664062e-01,-1.00585938e-01,3.71093750e-01,3.89099121e-04,1.88476562e-01,-6.59179688e-03,2.10937500e-01,-1.11694336e-02,-1.14257812e-01,-1.24511719e-01,1.05468750e-01,1.64062500e-01,1.75781250e-01,9.52148438e-02,-8.34960938e-02,-8.78906250e-02,-4.88281250e-02,-3.26171875e-01,-1.81884766e-02,-2.31933594e-02,-1.45507812e-01,2.53906250e-01,-1.10473633e-02,-5.82031250e-01,1.58203125e-01,-7.04956055e-03,-1.34277344e-02,-2.59765625e-01,-2.15820312e-01,1.70898438e-01,6.12792969e-02,-9.03320312e-02,1.46484375e-01,-9.13085938e-02,-8.74023438e-02,-8.00781250e-02,-3.75976562e-02,-1.15722656e-01,8.88671875e-02,-1.18164062e-01,-1.56250000e-01,1.33666992e-02,2.38037109e-02,-9.96093750e-02,2.64892578e-02,1.19628906e-01,-1.14746094e-01,-1.07910156e-01,-1.05468750e-01,9.32617188e-02,-4.63867188e-02,1.08886719e-01,-2.38281250e-01,1.48437500e-01,-1.68945312e-01,-5.95703125e-02,-7.66601562e-02,-1.08886719e-01,-3.85742188e-02,-2.20703125e-01,-2.19726562e-01,2.16796875e-01,5.03540039e-04,-1.53320312e-01,-1.23046875e-01,2.19726562e-01,2.27539062e-01,2.23388672e-02,2.19726562e-02,-8.83789062e-02,-6.68945312e-02,2.81250000e-01,-8.74023438e-02,2.08984375e-01,3.39843750e-01,-2.96875000e-01,-3.32031250e-02,-2.40234375e-01,1.22558594e-01,7.17773438e-02,2.66113281e-02,-3.08837891e-02,2.85156250e-01,-9.76562500e-03,-1.09863281e-01,1.02539062e-02,-4.93164062e-02,-4.63867188e-02,1.90429688e-02,2.49023438e-01,-2.17773438e-01,1.92382812e-01,-5.73730469e-02,-4.29687500e-02,7.42187500e-02,8.85009766e-03,-2.53906250e-01,7.47070312e-02,-2.41210938e-01,2.94921875e-01,-1.74560547e-02,3.41796875e-02,1.11083984e-02,4.37011719e-02,4.15039062e-02,5.00488281e-02,6.54296875e-02,2.20703125e-01,-1.36718750e-01,-1.00097656e-01,1.27929688e-01,1.48437500e-01,-8.34960938e-02,3.75000000e-01,1.75781250e-02,1.70898438e-01,2.33398438e-01,-1.70898438e-01,-1.19140625e-01,-2.26562500e-01,-6.29882812e-02,-4.05273438e-02,2.73437500e-01,-3.24707031e-02,1.52343750e-01,-2.71484375e-01,2.37304688e-01,-2.73437500e-01,-4.00390625e-01,1.76757812e-01,-2.17773438e-01,1.60156250e-01,1.04980469e-01,-8.64257812e-02,1.25976562e-01,1.37695312e-01,-1.11083984e-02,9.37500000e-02,-1.17675781e-01,-1.96289062e-01,-3.57421875e-01,-1.39648438e-01,1.18408203e-02,-1.58203125e-01,-2.36328125e-01,-1.48925781e-02,-4.66308594e-02,-1.66992188e-01,-1.06445312e-01,-6.68945312e-02,-2.45117188e-01,1.05957031e-01,2.69531250e-01,5.61523438e-02,-1.06933594e-01,-7.17773438e-02,9.71679688e-02,9.52148438e-02,-3.97949219e-02,1.39648438e-01,1.91406250e-01,1.54296875e-01,-2.06054688e-01,-1.25976562e-01,2.34375000e-01,1.99218750e-01,-1.50146484e-02,6.98242188e-02,-3.55529785e-03,9.57031250e-02,-2.94921875e-01,-6.39648438e-02,-2.50000000e-01,-8.10546875e-02,-1.11816406e-01,-2.63671875e-02,1.27929688e-01,9.96093750e-02,-6.68945312e-02,8.72802734e-03,8.83789062e-02,1.17675781e-01,-8.10546875e-02,-5.85937500e-02,8.78906250e-02,1.43554688e-01,-5.09643555e-03,-6.17675781e-02,-6.98852539e-03,-3.63769531e-02,-1.50390625e-01,-2.35351562e-01,8.83789062e-02,1.60156250e-01,1.89453125e-01,-7.51953125e-02,-3.36914062e-02,9.22851562e-02,2.08007812e-01,-1.32812500e-01,4.46777344e-02,-7.95898438e-02,7.32421875e-02,-1.23046875e-01,-8.78906250e-02,-1.22070312e-02,1.18164062e-01,-1.75781250e-01,-1.64062500e-01,-7.08007812e-02,1.57226562e-01,1.10839844e-01,1.69921875e-01,2.55859375e-01,1.75781250e-01,-3.26171875e-01,-3.22265625e-02,-9.91210938e-02,-3.20312500e-01,-6.73828125e-02,-1.73828125e-01,4.58984375e-02,-1.33666992e-02,7.12890625e-02,1.65039062e-01,-2.20947266e-02,1.33789062e-01,-1.54296875e-01,2.90527344e-02,4.02832031e-02,-5.29785156e-02,1.04980469e-01,-6.83593750e-02,1.07910156e-01,1.30859375e-01,-6.78710938e-02,7.22656250e-02,-6.64062500e-02,-1.40625000e-01,7.08007812e-02,1.02539062e-02,5.39550781e-02,-1.35742188e-01,-7.86132812e-02,7.62939453e-03,1.91406250e-01,-6.17675781e-02,-8.88671875e-02,1.54296875e-01,-2.70996094e-02,1.89208984e-02,-4.07714844e-02,-1.20605469e-01,1.20117188e-01,-1.23535156e-01,-7.61718750e-02,-1.80664062e-02,-2.53906250e-01,-7.04956055e-03,-5.61523438e-02
miracle2.59765625e-01,-1.00585938e-01,1.11816406e-01,-7.76367188e-02,-3.60488892e-04,1.12915039e-02,2.22656250e-01,-4.62890625e-01,2.45117188e-01,-6.54296875e-02,-1.94335938e-01,-2.89062500e-01,-1.68945312e-01,8.93554688e-02,-1.20117188e-01,4.37500000e-01,2.36328125e-01,-1.10351562e-01,1.91406250e-01,-9.57031250e-02,2.39257812e-01,1.65039062e-01,4.10156250e-02,-5.03906250e-01,3.14453125e-01,-5.31005859e-03,-1.13769531e-01,-1.94335938e-01,1.75781250e-01,-2.29492188e-01,-2.61718750e-01,-1.04003906e-01,-1.96533203e-02,-1.31835938e-01,9.13085938e-02,9.32617188e-02,1.84570312e-01,-7.03125000e-02,2.24609375e-01,1.03515625e-01,8.10546875e-02,-2.67333984e-02,3.28125000e-01,9.37500000e-02,-3.08837891e-02,-3.92578125e-01,-8.74023438e-02,1.40625000e-01,3.95507812e-02,-7.61718750e-02,-3.08593750e-01,3.20312500e-01,-7.12890625e-02,1.83593750e-01,-2.38037109e-02,-9.86328125e-02,3.68652344e-02,-4.63867188e-02,2.09960938e-02,-1.94335938e-01,1.25000000e-01,3.16406250e-01,5.10253906e-02,-3.04687500e-01,3.88671875e-01,9.17968750e-02,1.26953125e-01,2.25585938e-01,-1.11816406e-01,-1.27929688e-01,-1.99218750e-01,-2.55859375e-01,-3.20312500e-01,2.31445312e-01,2.28271484e-02,1.47460938e-01,1.20605469e-01,-1.18652344e-01,1.17187500e-01,7.61718750e-02,-2.92968750e-01,1.36718750e-01,8.30078125e-02,-8.00781250e-02,-1.48437500e-01,-1.29882812e-01,2.24609375e-01,1.53320312e-01,1.77734375e-01,-5.54199219e-02,-6.78710938e-02,1.97265625e-01,-1.78222656e-02,-2.10937500e-01,-1.20117188e-01,2.08007812e-01,-1.39648438e-01,1.52343750e-01,1.52343750e-01,-1.67968750e-01,-9.86328125e-02,7.76367188e-02,4.39453125e-01,-1.81640625e-01,4.10156250e-02,-1.08398438e-01,-4.98046875e-02,-1.49414062e-01,-1.66992188e-01,1.16577148e-02,4.76562500e-01,2.12890625e-01,7.38525391e-03,2.43164062e-01,-7.91015625e-02,-9.08203125e-02,-2.08007812e-01,-8.54492188e-02,-1.87500000e-01,2.41210938e-01,-8.69140625e-02,1.98364258e-03,9.42382812e-02,-1.63085938e-01,-3.37890625e-01,-6.07910156e-02,1.34765625e-01,-3.44238281e-02,6.22558594e-02,6.88476562e-02,-3.19824219e-02,-5.52368164e-03,1.62109375e-01,-2.71484375e-01,1.73339844e-02,2.36328125e-01,-5.29785156e-02,1.07421875e-01,-4.02832031e-02,3.78906250e-01,1.44531250e-01,-4.55078125e-01,1.01562500e-01,1.27929688e-01,4.76562500e-01,-2.11181641e-02,-3.00781250e-01,-4.22363281e-02,-3.58886719e-02,-5.00000000e-01,3.69140625e-01,-7.76367188e-02,-2.79296875e-01,4.88281250e-01,1.93359375e-01,-6.78710938e-02,-1.00585938e-01,2.83203125e-01,-9.76562500e-04,-3.73046875e-01,-2.06298828e-02,-1.47460938e-01,1.54296875e-01,-1.05468750e-01,2.28515625e-01,-3.45703125e-01,-1.91650391e-02,-2.57812500e-01,-1.25976562e-01,8.34960938e-02,4.29687500e-02,1.15722656e-01,-6.98242188e-02,-3.10546875e-01,1.38671875e-01,1.82617188e-01,1.58203125e-01,1.99218750e-01,2.73437500e-01,1.51367188e-01,-2.91015625e-01,-4.58984375e-01,1.66992188e-01,-2.37304688e-01,-2.00195312e-01,9.13085938e-02,-1.29882812e-01,-1.51367188e-01,-9.22851562e-02,6.64062500e-02,8.97216797e-03,2.13867188e-01,-1.56250000e-02,2.02148438e-01,-3.69262695e-03,9.42382812e-02,-1.25976562e-01,-2.81250000e-01,-5.35156250e-01,-1.78710938e-01,9.33837891e-03,1.74804688e-01,-8.44726562e-02,-3.73535156e-02,1.62109375e-01,-6.73828125e-02,-1.13769531e-01,-8.00781250e-02,1.28906250e-01,2.81982422e-02,-5.15136719e-02,8.39843750e-02,-1.67968750e-01,-7.81250000e-02,-3.97949219e-02,-1.94335938e-01,2.36328125e-01,-8.34960938e-02,-1.85546875e-01,1.13281250e-01,5.44433594e-02,2.43164062e-01,1.50146484e-02,-6.25000000e-02,-8.93554688e-02,2.96630859e-02,-6.07910156e-02,-8.44726562e-02,-2.53906250e-01,1.92382812e-01,1.36718750e-01,1.74804688e-01,8.78906250e-02,-1.34765625e-01,7.51953125e-02,-3.26171875e-01,-2.17773438e-01,6.00585938e-02,7.12890625e-02,-1.41601562e-01,2.51953125e-01,-2.84423828e-02,-8.34960938e-02,-2.02148438e-01,1.18652344e-01,7.56835938e-02,5.88378906e-02,-2.01171875e-01,7.32421875e-02,-4.53125000e-01,-1.66015625e-01,-2.50000000e-01,2.69531250e-01,1.30859375e-01,2.67578125e-01,1.61132812e-02,-2.75390625e-01,-3.10058594e-02,1.67968750e-01,-2.18750000e-01,3.02734375e-02,-9.52148438e-02,-8.72802734e-03,3.80859375e-01,1.97265625e-01,2.39257812e-01,5.31250000e-01,-9.42382812e-02,-2.61718750e-01,-1.34765625e-01,2.17773438e-01,-8.98437500e-02,1.66992188e-01,-4.34570312e-02,1.01074219e-01,-1.07910156e-01,8.85009766e-03,-1.42578125e-01,8.00781250e-02,2.59765625e-01,-7.99560547e-03,-3.49121094e-02,3.95507812e-02,1.72851562e-01,-8.00781250e-02,-2.30468750e-01,-1.25976562e-01,-2.86865234e-02,-1.63085938e-01,1.05468750e-01,5.78613281e-02,-2.73437500e-01,-3.52478027e-03,-3.41796875e-02,3.02124023e-03,1.13769531e-01,-3.06640625e-01,-1.01562500e-01,-1.01074219e-01,1.02539062e-01
important8.20312500e-02,-7.91015625e-02,5.05371094e-02,-2.39257812e-02,-2.44140625e-02,3.06396484e-02,3.14453125e-01,-3.71093750e-02,6.39648438e-02,1.17675781e-01,3.51562500e-02,-2.49023438e-01,2.75390625e-01,1.57226562e-01,-4.00390625e-02,1.25976562e-01,1.15234375e-01,-1.67236328e-02,-5.51757812e-02,1.86523438e-01,-1.45507812e-01,2.35595703e-02,-1.39648438e-01,3.24218750e-01,-4.76074219e-02,4.83398438e-02,3.22265625e-02,-9.03320312e-02,4.42504883e-03,1.19628906e-01,3.20312500e-01,6.39648438e-02,3.10546875e-01,-3.61328125e-02,1.77734375e-01,-1.30859375e-01,-1.22558594e-01,1.42578125e-01,2.08984375e-01,-3.88183594e-02,1.13281250e-01,2.94189453e-02,8.74023438e-02,-4.32128906e-02,-8.83789062e-02,-9.03320312e-02,-4.17480469e-02,-1.07421875e-01,-5.34667969e-02,-1.15234375e-01,3.41796875e-02,1.57470703e-02,7.01904297e-03,3.54003906e-02,-6.05468750e-02,1.36718750e-01,-9.70458984e-03,-7.17773438e-02,1.76757812e-01,-6.59942627e-04,-1.13769531e-01,1.51367188e-01,-3.28125000e-01,-1.49414062e-01,1.39648438e-01,4.76074219e-02,-1.91406250e-01,7.47070312e-02,-7.08007812e-02,-1.22558594e-01,-1.04980469e-01,-3.29589844e-02,1.21093750e-01,-1.17187500e-01,-1.91406250e-01,-2.45117188e-01,1.51367188e-01,3.30078125e-01,9.32617188e-02,3.00781250e-01,-1.40625000e-01,-8.98437500e-02,1.20605469e-01,-6.17675781e-02,-7.56835938e-02,-2.25585938e-01,-1.99218750e-01,-1.30859375e-01,-1.76757812e-01,1.70898438e-01,4.44335938e-02,-1.43554688e-01,7.81250000e-03,-1.81640625e-01,-1.13769531e-01,-2.32421875e-01,1.38671875e-01,-4.68750000e-02,-7.17773438e-02,1.11694336e-02,-2.10937500e-01,1.54296875e-01,-1.47705078e-02,-1.27929688e-01,-1.36718750e-01,-1.04370117e-02,-5.29785156e-02,-1.52587891e-02,9.21630859e-03,1.23046875e-01,-1.50390625e-01,-2.03857422e-02,-1.77734375e-01,3.97949219e-02,1.72851562e-01,-1.68609619e-03,2.69531250e-01,4.90722656e-02,1.72851562e-01,-6.39648438e-02,5.73730469e-02,2.41699219e-02,-5.59082031e-02,1.32812500e-01,-4.08203125e-01,-1.87500000e-01,3.24707031e-02,9.91210938e-02,-1.17675781e-01,3.06640625e-01,2.23388672e-02,-1.91406250e-01,-1.79687500e-01,1.55273438e-01,1.71875000e-01,-9.76562500e-02,-1.59912109e-02,6.20117188e-02,-6.64062500e-02,2.65625000e-01,2.22656250e-01,2.23632812e-01,2.08984375e-01,-6.59179688e-02,-1.06445312e-01,-1.41601562e-01,3.97949219e-02,6.15234375e-02,-3.58886719e-02,-3.02734375e-01,-5.17578125e-02,1.47460938e-01,-4.98046875e-02,6.03027344e-02,-1.22558594e-01,8.05664062e-02,-1.45507812e-01,-1.68945312e-01,-1.59179688e-01,-1.14257812e-01,-9.76562500e-02,8.83789062e-02,5.81054688e-02,4.44335938e-02,1.85546875e-01,-4.27246094e-02,-1.70898438e-01,-1.46484375e-01,1.66992188e-01,-5.10253906e-02,-7.47070312e-02,8.69140625e-02,4.05273438e-02,-3.68652344e-02,2.63671875e-01,7.86132812e-02,-7.81250000e-02,-1.26953125e-01,-9.76562500e-03,3.05175781e-02,-1.69921875e-01,-8.05664062e-02,-1.57226562e-01,-1.81640625e-01,8.91113281e-03,1.38671875e-01,-2.12890625e-01,1.67968750e-01,-1.73187256e-03,1.38671875e-01,-7.32421875e-02,6.59179688e-02,1.79687500e-01,-1.71875000e-01,-7.22656250e-02,-3.08593750e-01,2.41699219e-02,-1.28906250e-01,-1.05468750e-01,-8.98437500e-02,3.27148438e-02,1.49414062e-01,-2.25585938e-01,-1.82617188e-01,-5.66406250e-02,-1.72851562e-01,-2.08740234e-02,-5.56640625e-02,-4.24804688e-02,-1.39648438e-01,-1.76757812e-01,1.69921875e-01,-2.55859375e-01,1.89453125e-01,3.27148438e-02,4.02832031e-02,3.41796875e-01,-2.56347656e-02,2.65625000e-01,1.40625000e-01,-1.04003906e-01,1.98242188e-01,-1.31835938e-01,-1.51367188e-01,1.11694336e-02,-2.01171875e-01,2.53906250e-01,-1.02050781e-01,-2.06054688e-01,2.29492188e-02,-1.71875000e-01,2.16796875e-01,-6.15234375e-02,-2.75878906e-02,1.38671875e-01,-1.79443359e-02,-1.94335938e-01,-3.78417969e-02,1.26342773e-02,-8.15429688e-02,-6.54296875e-02,1.25122070e-02,1.35742188e-01,-1.12792969e-01,-4.42504883e-03,1.47705078e-02,-1.18164062e-01,1.00097656e-01,4.49218750e-02,-1.47460938e-01,-1.28906250e-01,1.69921875e-01,1.45507812e-01,-1.03149414e-02,1.47460938e-01,-1.68945312e-01,9.03320312e-02,-1.23901367e-02,-2.15820312e-01,-1.56250000e-01,-4.17480469e-02,-1.97265625e-01,-5.12695312e-02,5.76171875e-02,1.08032227e-02,1.00585938e-01,5.32226562e-02,-1.84570312e-01,-1.51367188e-01,-4.17232513e-05,-7.11059570e-03,2.97851562e-02,-1.50756836e-02,1.57226562e-01,-2.81982422e-02,-2.57812500e-01,1.66992188e-01,-1.44531250e-01,-2.59765625e-01,2.25830078e-02,-1.52343750e-01,-1.19628906e-01,-1.79687500e-01,1.70898438e-01,-1.55273438e-01,9.08203125e-02,-1.16210938e-01,2.56347656e-02,7.71484375e-02,-4.88281250e-02,-6.25000000e-02,-6.98242188e-02,1.39648438e-01,-7.47070312e-02,-9.17968750e-02,2.71484375e-01,-1.50390625e-01,7.76367188e-02,1.75781250e-02,6.12792969e-02
profitable
